%YAML:1.0
---
opencv_ml_svm:
   format: 3
   svmType: C_SVC
   kernel:
      type: RBF
      gamma: 1.
   C: 1.
   term_criteria: { epsilon:1.1920928955078125e-07, iterations:1000 }
   var_count: 94
   class_count: 14
   class_labels: !!opencv-matrix
      rows: 14
      cols: 1
      dt: i
      data: [ 1, 2, 3, 4, 5, 6, 7, 8, 9, 10, 11, 12, 13, 14 ]
   sv_total: 241
   support_vectors:
      - [ -1.41527504e-01, 1.00786877e+00, 3.81389141e+00,
          -4.59359139e-01, -4.08758074e-01, -4.42288905e-01,
          -4.59968805e-01, -4.59968805e-01, -4.16683555e-01,
          -4.59968805e-01, -4.59968805e-01, -4.59968805e-01,
          -8.07655677e-02, -4.59968805e-01, -4.59968805e-01,
          -4.43101764e-01, -3.01459402e-01, -4.59968805e-01,
          -4.59968805e-01, -3.00646544e-01, -3.50028306e-01,
          7.33119190e-01, 1.92945862e+00, -1.07055700e+00,
          -2.38205060e-01, -1.11545408e+00, -4.23417449e-01,
          -2.38559768e-01, 1.71907175e+00, -3.36914063e-01,
          1.54987776e+00, -1.03788137e+00, -1.53313175e-01,
          -1.10929322e+00, -4.01447624e-01, -2.37904593e-01,
          1.71925092e+00, -3.26689869e-01, 1.56911099e+00,
          -1.04609919e+00, -1.81898832e-01, -1.10824335e+00,
          -3.96770209e-01, -2.36513838e-01, 1.71791816e+00,
          -3.25592011e-01, 1.57144201e+00, -1.04751790e+00,
          -1.97186917e-01, -1.11124611e+00, -3.96383435e-01,
          -2.46810108e-01, 1.70919216e+00, -3.28792214e-01,
          1.56901908e+00, -1.07065988e+00, -2.25343093e-01,
          -1.11312187e+00, -3.80184084e-01, -2.46395975e-01,
          1.70840907e+00, -3.36641371e-01, 1.55435872e+00,
          -1.03134024e+00, -1.25455037e-01, -1.09691167e+00,
          -3.35141182e-01, -2.52052665e-01, 1.69791651e+00,
          -3.39715004e-01, 1.54772007e+00, -1.01866961e+00,
          -8.50236490e-02, -1.09007728e+00, -3.26009244e-01,
          -2.47650102e-01, 1.70482886e+00, -3.39720219e-01,
          1.54453504e+00, -1.01896858e+00, -9.34534594e-02,
          -1.09693623e+00, -3.60051036e-01, -2.49400333e-01,
          1.70390940e+00, -3.39505106e-01, 1.54455781e+00,
          2.44948864e+00, -4.06071514e-01, -4.08263713e-01,
          -4.08784449e-01, -4.08789665e-01, -4.08789665e-01,
          -4.08789665e-01 ]
      - [ 2.50427961e-01, 8.99347737e-02, 2.24536240e-01,
          -3.57850045e-01, -2.73081273e-01, -3.58559400e-01,
          -3.58559400e-01, -3.57672721e-01, -3.29830259e-01,
          -3.58559400e-01, -3.58559400e-01, -3.58559400e-01,
          -3.54657918e-01, -3.58559400e-01, -3.58559400e-01,
          -3.58204722e-01, -3.40293348e-01, -3.58559400e-01,
          -3.58559400e-01, 2.59472311e-01, -1.07090548e-01,
          4.55253172e+00, 3.28812450e-01, -1.06076491e+00,
          -6.28700331e-02, -1.11061800e+00, -2.39011317e-01,
          -1.80892050e-01, 1.88328505e+00, -4.91307795e-01,
          1.23926473e+00, -1.03983188e+00, -1.98307931e-02,
          -1.10407495e+00, -2.25495175e-01, -1.73426181e-01,
          1.89164090e+00, -4.85047489e-01, 1.24617231e+00,
          -1.04349232e+00, -6.38175458e-02, -1.11419737e+00,
          -2.82763779e-01, -1.48783892e-01, 1.92150915e+00,
          -4.73033220e-01, 1.26706839e+00, -1.05980039e+00,
          -1.32696211e-01, -1.13327515e+00, -3.78556132e-01,
          -1.43445030e-01, 1.93129075e+00, -4.57410097e-01,
          1.30474699e+00, -1.09177756e+00, -2.24984840e-01,
          -1.14752221e+00, -4.34902102e-01, -1.42998353e-01,
          1.93288338e+00, -4.50399458e-01, 1.32543814e+00,
          -1.06233215e+00, -1.42952353e-01, -1.13031852e+00,
          -3.75339717e-01, -1.55110925e-01, 1.91131103e+00,
          -4.53777164e-01, 1.32660496e+00, -1.03180087e+00,
          -4.51231608e-03, -1.10960865e+00, -2.72944778e-01,
          -1.63979426e-01, 1.89482796e+00, -4.67250168e-01,
          1.30006003e+00, -1.03089261e+00, -3.86692031e-04,
          -1.10305738e+00, -2.29765221e-01, -1.81991816e-01,
          1.87674296e+00, -4.82832700e-01, 1.26303279e+00,
          2.44948936e+00, -4.07909214e-01, -4.06901896e-01,
          -4.08669144e-01, -4.08669680e-01, -4.08669680e-01,
          -4.08669680e-01 ]
      - [ 2.98026234e-01, 7.50521600e-01, 6.55802011e-01,
          -3.94328684e-01, -3.42941701e-01, -3.94328684e-01,
          -3.94328684e-01, -3.94328684e-01, -3.92073452e-01,
          -3.94328684e-01, -3.94328684e-01, -3.94328684e-01,
          -3.94328684e-01, -3.94328684e-01, -3.94328684e-01,
          -3.94328684e-01, -3.94328684e-01, -3.94328684e-01,
          -3.94328684e-01, -7.92411417e-02, -2.75929213e-01,
          4.37032318e+00, 5.36113858e-01, -1.08387351e+00,
          -1.43655837e-01, -1.13792729e+00, -3.30441266e-01,
          -1.19992644e-01, 1.87573707e+00, -4.42457378e-01,
          1.25207865e+00, -1.04823208e+00, -4.68224250e-02,
          -1.12664604e+00, -3.01499009e-01, -1.15004107e-01,
          1.88472617e+00, -4.35997099e-01, 1.25832677e+00,
          -1.05198324e+00, -7.77374282e-02, -1.12917888e+00,
          -3.21539283e-01, -9.58741978e-02, 1.90864146e+00,
          -4.24080282e-01, 1.27860093e+00, -1.06105089e+00,
          -1.15331560e-01, -1.14205074e+00, -3.75575721e-01,
          -8.92623737e-02, 1.91810942e+00, -4.07064766e-01,
          1.31462944e+00, -1.08744633e+00, -1.75357148e-01,
          -1.15237951e+00, -4.01567310e-01, -8.89168084e-02,
          1.91487730e+00, -4.00922090e-01, 1.32977486e+00,
          -1.06737757e+00, -1.35762349e-01, -1.14389431e+00,
          -3.91710430e-01, -1.05638757e-01, 1.89143860e+00,
          -4.07602400e-01, 1.32946122e+00, -1.05069435e+00,
          -6.82732090e-02, -1.13253057e+00, -3.43952566e-01,
          -1.16223268e-01, 1.87506902e+00, -4.23750490e-01,
          1.30143714e+00, -1.05521739e+00, -8.34341720e-02,
          -1.13183689e+00, -3.22685212e-01, -1.24268189e-01,
          1.87043166e+00, -4.37271148e-01, 1.26865089e+00,
          2.39078951e+00, 1.25656754e-01, -4.66213197e-01,
          -5.03454983e-01, -5.16663015e-01, -5.13399720e-01,
          -5.16715229e-01 ]
      - [ 2.27662206e-01, 1.97237775e-01, 9.89041567e-01,
          -4.45670635e-01, -3.98343742e-01, -4.45670635e-01,
          -4.45670635e-01, -4.45670635e-01, -4.37065750e-01,
          -4.45670635e-01, -4.45670635e-01, -4.45670635e-01,
          -4.42751139e-01, -4.45670635e-01, -4.45670635e-01,
          -4.45670635e-01, -4.39216971e-01, -4.45670635e-01,
          -4.45670635e-01, 9.64375958e-02, -2.38384932e-01,
          3.88689280e+00, 1.90653825e+00, -1.09256482e+00,
          -2.39676625e-01, -1.14288640e+00, -3.98264408e-01,
          -2.29955707e-02, 1.78602612e+00, -2.84007549e-01,
          1.34330606e+00, -1.05779874e+00, -1.98874757e-01,
          -1.13141036e+00, -3.84551823e-01, -2.14896537e-02,
          1.78837955e+00, -2.80111164e-01, 1.34686029e+00,
          -1.07002687e+00, -2.35588551e-01, -1.13713491e+00,
          -4.17063832e-01, 4.21815272e-03, 1.81784797e+00,
          -2.65970856e-01, 1.36600912e+00, -1.08663392e+00,
          -2.93935925e-01, -1.15437293e+00, -4.73902792e-01,
          1.19480165e-02, 1.82846630e+00, -2.43520930e-01,
          1.40463591e+00, -1.12236607e+00, -3.58950526e-01,
          -1.16867459e+00, -5.10854721e-01, 2.19922233e-02,
          1.84044755e+00, -2.31644943e-01, 1.42427552e+00,
          -1.08397412e+00, -2.86031008e-01, -1.15533555e+00,
          -4.87757832e-01, 6.10866304e-03, 1.82258666e+00,
          -2.40316898e-01, 1.41777980e+00, -1.07562637e+00,
          -2.51716137e-01, -1.14222002e+00, -4.36811507e-01,
          -6.68335846e-03, 1.80093384e+00, -2.59630769e-01,
          1.39238441e+00, -1.07097471e+00, -2.25872815e-01,
          -1.13545525e+00, -3.86951357e-01, -2.76941154e-02,
          1.78128445e+00, -2.73394972e-01, 1.36623108e+00,
          2.44848585e+00, -3.93410951e-01, -3.45009536e-01,
          -4.22591299e-01, -4.29046571e-01, -4.29378539e-01,
          -4.29048955e-01 ]
      - [ 2.85818696e-01, 1.74100041e+00, 1.25885859e-01,
          -3.53753239e-01, -3.53753239e-01, -3.53753239e-01,
          -3.53753239e-01, -3.53753239e-01, -3.53753239e-01,
          -3.53753239e-01, -3.53753239e-01, -3.53753239e-01,
          -3.53753239e-01, -3.53753239e-01, -3.53753239e-01,
          -3.53753239e-01, -3.53753239e-01, -3.53753239e-01,
          -3.53753239e-01, -1.59856588e-01, -3.37648362e-01,
          4.20584774e+00, -2.00995848e-01, -1.10193467e+00,
          -1.67874977e-01, -1.16944659e+00, -3.82946134e-01,
          1.59718078e-02, 1.83031356e+00, -3.15654129e-01,
          1.29141665e+00, -1.07116330e+00, -1.18681729e-01,
          -1.15879321e+00, -3.62875193e-01, 1.57120265e-02,
          1.83350670e+00, -3.06391507e-01, 1.30312610e+00,
          -1.07833791e+00, -1.47891819e-01, -1.16411328e+00,
          -3.89901966e-01, 4.05771770e-02, 1.85912037e+00,
          -3.05262178e-01, 1.30193090e+00, -1.09523177e+00,
          -1.97936654e-01, -1.17965281e+00, -4.36385930e-01,
          4.69359346e-02, 1.86406434e+00, -2.96451062e-01,
          1.31011534e+00, -1.13275516e+00, -2.66155243e-01,
          -1.19637907e+00, -4.77187723e-01, 5.46536185e-02,
          1.87174952e+00, -2.90310353e-01, 1.31548786e+00,
          -1.09642553e+00, -2.10090891e-01, -1.18836665e+00,
          -4.81516272e-01, 5.07637337e-02, 1.86883819e+00,
          -3.02304566e-01, 1.30205500e+00, -1.09494877e+00,
          -2.13954821e-01, -1.17679298e+00, -4.52014267e-01,
          3.75807919e-02, 1.85203564e+00, -3.21898192e-01,
          1.27686048e+00, -1.07744265e+00, -1.36237666e-01,
          -1.16978467e+00, -4.06013250e-01, 1.45492116e-02,
          1.82713878e+00, -3.24892104e-01, 1.27789354e+00,
          2.44646120e+00, -2.87884235e-01, -4.24819022e-01,
          -4.33261663e-01, -4.33492184e-01, -4.33511883e-01,
          -4.33492184e-01 ]
      - [ 2.01532081e-01, 2.41999197e+00, 2.40896698e-02,
          -3.58424574e-01, -3.58424574e-01, -3.58424574e-01,
          -3.58424574e-01, -3.58424574e-01, -3.58424574e-01,
          -3.58424574e-01, -3.58424574e-01, -3.58424574e-01,
          -3.58424574e-01, -3.58424574e-01, -3.58424574e-01,
          -3.58424574e-01, -3.58424574e-01, -3.58424574e-01,
          -3.58424574e-01, -2.19908997e-01, -3.38040203e-01,
          3.85254788e+00, -2.05418885e-01, -1.11724782e+00,
          -2.59050757e-01, -1.17953634e+00, -4.55166638e-01,
          8.72823372e-02, 1.83820176e+00, -2.65895575e-01,
          1.29121435e+00, -1.08866668e+00, -2.16136128e-01,
          -1.17017281e+00, -4.38457906e-01, 8.50991607e-02,
          1.84002340e+00, -2.58217812e-01, 1.29928470e+00,
          -1.08739400e+00, -2.12853268e-01, -1.16928411e+00,
          -4.46354598e-01, 1.05972975e-01, 1.85680258e+00,
          -2.57043362e-01, 1.29848242e+00, -1.09489059e+00,
          -2.33844921e-01, -1.17875338e+00, -4.70874697e-01,
          1.08130231e-01, 1.85578787e+00, -2.51486957e-01,
          1.30402231e+00, -1.12248087e+00, -2.76518911e-01,
          -1.19070983e+00, -5.03654063e-01, 1.06573492e-01,
          1.85500109e+00, -2.54810780e-01, 1.30040026e+00,
          -1.08638191e+00, -2.17953011e-01, -1.17905092e+00,
          -4.94797379e-01, 9.44352821e-02, 1.84291613e+00,
          -2.69578397e-01, 1.28585243e+00, -1.08496392e+00,
          -2.16321796e-01, -1.17017210e+00, -4.72364962e-01,
          9.24192593e-02, 1.83915389e+00, -2.83413529e-01,
          1.26809180e+00, -1.08084810e+00, -1.88142329e-01,
          -1.17060244e+00, -4.47696865e-01, 8.02344605e-02,
          1.82671309e+00, -2.77223319e-01, 1.27691865e+00,
          2.37668848e+00, 1.88301936e-01, -5.06195128e-01,
          -5.13712585e-01, -5.14989793e-01, -5.15103519e-01,
          -5.14989316e-01 ]
      - [ 2.89281160e-01, 2.29192090e+00, 3.97154167e-02,
          -3.65828931e-01, -3.65828931e-01, -3.65828931e-01,
          -3.65828931e-01, -3.65828931e-01, -3.65828931e-01,
          -3.65828931e-01, -3.65828931e-01, -3.65828931e-01,
          -3.65828931e-01, -3.65828931e-01, -3.65828931e-01,
          -3.65828931e-01, -3.65828931e-01, -3.65828931e-01,
          -3.65828931e-01, -1.24571592e-01, -3.50152701e-01,
          3.91644979e+00, -2.09380060e-01, -1.12396097e+00,
          -2.10673064e-01, -1.18993795e+00, -4.20636207e-01,
          6.66844472e-02, 1.83474505e+00, -2.94490993e-01,
          1.27782238e+00, -1.09875405e+00, -1.84780106e-01,
          -1.18060994e+00, -4.04826164e-01, 6.61817789e-02,
          1.83734119e+00, -2.83782095e-01, 1.28995299e+00,
          -1.09874487e+00, -1.86602399e-01, -1.18112779e+00,
          -4.12856191e-01, 9.06628221e-02, 1.85634470e+00,
          -2.80058116e-01, 1.29291499e+00, -1.10792673e+00,
          -2.13898152e-01, -1.19387579e+00, -4.51356113e-01,
          8.66961405e-02, 1.85324204e+00, -2.73008704e-01,
          1.30106282e+00, -1.14017880e+00, -2.71082193e-01,
          -1.20449388e+00, -4.76509780e-01, 9.27114114e-02,
          1.86032724e+00, -2.77658731e-01, 1.29499555e+00,
          -1.09338534e+00, -1.83462054e-01, -1.19198298e+00,
          -4.66137469e-01, 8.54516551e-02, 1.85121202e+00,
          -2.91948587e-01, 1.27798867e+00, -1.09138680e+00,
          -1.70223519e-01, -1.17732394e+00, -4.15909916e-01,
          8.47478956e-02, 1.84592760e+00, -3.05796713e-01,
          1.25955915e+00, -1.08813190e+00, -1.48306370e-01,
          -1.17744482e+00, -3.99341583e-01, 6.52052388e-02,
          1.82849610e+00, -3.03211898e-01, 1.26555002e+00,
          2.44869041e+00, -3.46655846e-01, -4.15164948e-01,
          -4.21361715e-01, -4.21846986e-01, -4.21813935e-01,
          -4.21847045e-01 ]
      - [ 1.04040980e+00, -3.56001109e-01, -5.90478927e-02,
          -4.02946740e-01, -3.97410691e-01, -4.02946740e-01,
          -4.02946740e-01, -4.02946740e-01, -4.02946740e-01,
          -4.02946740e-01, -4.02946740e-01, -4.02946740e-01,
          -4.02946740e-01, -4.02946740e-01, -4.02946740e-01,
          -4.02946740e-01, -4.02946740e-01, -4.02946740e-01,
          -4.02946740e-01, -1.66889966e-01, 1.27405956e-01,
          3.92911577e+00, 1.92661917e+00, -1.14086890e+00,
          -1.34310916e-01, -1.20018804e+00, -3.01141381e-01,
          -1.25532687e-01, 1.73079288e+00, -3.25101227e-01,
          1.42267525e+00, -1.09323931e+00, -3.11894398e-02,
          -1.18435347e+00, -2.72652954e-01, -1.39589027e-01,
          1.71789229e+00, -3.30734581e-01, 1.41654694e+00,
          -1.10225594e+00, -5.96175864e-02, -1.18433571e+00,
          -2.80705512e-01, -1.17515445e-01, 1.73361897e+00,
          -3.40151906e-01, 1.40350759e+00, -1.12002730e+00,
          -1.07718416e-01, -1.19833839e+00, -3.17360461e-01,
          -1.16747066e-01, 1.73949099e+00, -3.27588886e-01,
          1.41394258e+00, -1.16434693e+00, -1.82388142e-01,
          -1.21534145e+00, -3.42335343e-01, -9.92920175e-02,
          1.76177263e+00, -3.07751298e-01, 1.43552828e+00,
          -1.12395799e+00, -1.24059461e-01, -1.20469463e+00,
          -3.25890005e-01, -1.05262548e-01, 1.75933254e+00,
          -2.93791026e-01, 1.45392787e+00, -1.12418294e+00,
          -1.24025114e-01, -1.19670475e+00, -3.08274001e-01,
          -9.89474878e-02, 1.76046538e+00, -3.05649936e-01,
          1.44030464e+00, -1.12301707e+00, -1.15011089e-01,
          -1.19663501e+00, -3.06418300e-01, -1.13996804e-01,
          1.74860668e+00, -3.15564901e-01, 1.43039727e+00,
          2.44948816e+00, -4.05500025e-01, -4.08494055e-01,
          -4.08872843e-01, -4.08873737e-01, -4.08873737e-01,
          -4.08873737e-01 ]
      - [ 1.87564611e-01, -2.03268781e-01, 1.38790667e-01,
          -3.68435115e-01, -3.64176154e-01, -3.68493468e-01,
          -3.68493468e-01, -3.68493468e-01, -3.68260086e-01,
          -3.68493468e-01, -3.68493468e-01, -3.68493468e-01,
          -3.68493468e-01, -3.68493468e-01, -3.68493468e-01,
          -3.68493468e-01, -3.68493468e-01, -3.68493468e-01,
          -3.68493468e-01, -2.67328352e-01, -2.06010848e-01,
          2.36488986e+00, 3.87664914e+00, -1.17844057e+00,
          -4.75219578e-01, -1.24433434e+00, -6.77648485e-01,
          2.53830582e-01, 1.70533514e+00, -1.27527667e-02,
          1.34956419e+00, -1.12056625e+00, -3.71422768e-01,
          -1.21759832e+00, -6.20484829e-01, 2.57760584e-01,
          1.70828080e+00, -1.47499433e-02, 1.34422934e+00,
          -1.08534169e+00, -2.65997112e-01, -1.19606388e+00,
          -5.60009241e-01, 2.62725979e-01, 1.70643997e+00,
          -1.95612870e-02, 1.33801627e+00, -1.07686710e+00,
          -2.35267952e-01, -1.19440794e+00, -5.45639575e-01,
          2.48662755e-01, 1.69745255e+00, -1.71098150e-02,
          1.34747100e+00, -1.13280320e+00, -3.46958876e-01,
          -1.21333075e+00, -5.85621953e-01, 2.44042441e-01,
          1.69506896e+00, -1.56265609e-02, 1.35199153e+00,
          -1.10707676e+00, -3.32572490e-01, -1.21020532e+00,
          -5.98754168e-01, 2.42578059e-01, 1.69374299e+00,
          -1.42206512e-02, 1.35568547e+00, -1.11978149e+00,
          -3.68148416e-01, -1.21616328e+00, -6.15551293e-01,
          2.54519075e-01, 1.69938326e+00, -1.49256047e-02,
          1.35266280e+00, -1.13012719e+00, -3.86232823e-01,
          -1.22824502e+00, -6.39518440e-01, 2.53480643e-01,
          1.70074809e+00, -1.19075477e-02, 1.35358286e+00,
          2.44948840e+00, -4.05828476e-01, -4.08501446e-01,
          -4.08787876e-01, -4.08790231e-01, -4.08790231e-01,
          -4.08790231e-01 ]
      - [ -8.95274989e-03, -1.08033523e-01, 4.45461512e+00,
          -3.52564305e-01, -3.30436736e-01, -3.52846205e-01,
          -3.52846205e-01, -3.52705240e-01, -3.37906569e-01,
          -3.52846205e-01, -3.52846205e-01, -3.52846205e-01,
          -2.76456743e-01, -3.52846205e-01, -3.52846205e-01,
          -2.75752038e-01, -2.66590953e-01, -3.52846205e-01,
          -3.52846205e-01, 1.06617995e-01, -2.70819157e-01,
          1.11222446e+00, 8.23763311e-02, -1.10147572e+00,
          -3.16512823e-01, -1.14454722e+00, -4.63231862e-01,
          -1.84796929e-01, 1.70429099e+00, -2.71075666e-01,
          1.57682300e+00, -1.07267821e+00, -2.78764039e-01,
          -1.12853682e+00, -4.29825604e-01, -1.90335914e-01,
          1.70091259e+00, -2.80983537e-01, 1.55551171e+00,
          -1.04046345e+00, -1.53386161e-01, -1.10974932e+00,
          -3.73937845e-01, -1.89065084e-01, 1.69909418e+00,
          -2.91074783e-01, 1.53449011e+00, -1.01276851e+00,
          -5.42568788e-02, -1.10053587e+00, -3.36270660e-01,
          -1.94357023e-01, 1.68972158e+00, -2.96079457e-01,
          1.52634561e+00, -1.05862963e+00, -1.76290810e-01,
          -1.11272669e+00, -3.59258324e-01, -1.90987632e-01,
          1.69633985e+00, -2.93761343e-01, 1.53089809e+00,
          -1.04432428e+00, -1.74251482e-01, -1.11760390e+00,
          -3.97640675e-01, -1.93364292e-01, 1.69782770e+00,
          -2.86738306e-01, 1.54933226e+00, -1.05655706e+00,
          -2.16673136e-01, -1.12196350e+00, -4.14478600e-01,
          -1.84204355e-01, 1.70360518e+00, -2.79058844e-01,
          1.56561708e+00, -1.06605482e+00, -2.42453068e-01,
          -1.13171172e+00, -4.36928660e-01, -1.81335375e-01,
          1.70819521e+00, -2.69349426e-01, 1.58205032e+00,
          2.44940352e+00, -3.88231516e-01, -4.09078985e-01,
          -4.12666619e-01, -4.13148165e-01, -4.13129985e-01,
          -4.13148195e-01 ]
      - [ 7.92464912e-01, -3.07350427e-01, -9.29396078e-02,
          -3.56966168e-01, -3.56966168e-01, -3.56966168e-01,
          -3.56966168e-01, -3.56966168e-01, -3.56966168e-01,
          -3.56966168e-01, -3.56966168e-01, -3.56966168e-01,
          -3.56966168e-01, -3.56966168e-01, -3.56966168e-01,
          -3.56966168e-01, -3.56966168e-01, -3.56966168e-01,
          -3.56966168e-01, 9.60726961e-02, -2.79589266e-01,
          4.33290148e+00, 1.16989887e+00, -1.10813236e+00,
          -8.13765377e-02, -1.16221273e+00, -2.53192157e-01,
          -1.27914980e-01, 1.89607453e+00, -4.66954201e-01,
          1.26614082e+00, -1.08365285e+00, -4.59303707e-02,
          -1.15480125e+00, -2.46773571e-01, -1.34168357e-01,
          1.88826108e+00, -4.72917318e-01, 1.25599349e+00,
          -1.07959151e+00, -2.91667935e-02, -1.15480065e+00,
          -2.54237980e-01, -1.42184660e-01, 1.87674868e+00,
          -4.78636116e-01, 1.24878252e+00, -1.09513223e+00,
          -7.88655132e-02, -1.16100490e+00, -2.64586240e-01,
          -1.48521855e-01, 1.86695087e+00, -4.74300534e-01,
          1.26502848e+00, -1.12121272e+00, -1.23660997e-01,
          -1.16854513e+00, -2.75579125e-01, -1.30605876e-01,
          1.89108157e+00, -4.66964483e-01, 1.27843893e+00,
          -1.07574594e+00, -1.80375930e-02, -1.15270698e+00,
          -2.42584020e-01, -1.33845836e-01, 1.88659048e+00,
          -4.62989420e-01, 1.29107130e+00, -1.07497907e+00,
          -2.88506541e-02, -1.14558899e+00, -2.35435218e-01,
          -1.25342488e-01, 1.89128554e+00, -4.68801558e-01,
          1.28527546e+00, -1.07451713e+00, -2.43963972e-02,
          -1.15141916e+00, -2.46520832e-01, -1.36431113e-01,
          1.88324797e+00, -4.65813249e-01, 1.27865827e+00,
          2.44948936e+00, -4.06872988e-01, -4.08411503e-01,
          -4.08551097e-01, -4.08551246e-01, -4.08551246e-01,
          -4.08551246e-01 ]
      - [ 4.71172839e-01, 3.20523083e-02, -4.46025878e-02,
          -3.38772416e-01, -3.38772416e-01, -3.38772416e-01,
          -3.38772416e-01, -3.38772416e-01, -3.38772416e-01,
          -3.38772416e-01, -3.38772416e-01, -3.38772416e-01,
          -3.38772416e-01, -3.38772416e-01, -3.38772416e-01,
          -3.38772416e-01, -3.38772416e-01, -3.38772416e-01,
          -3.38772416e-01, -4.94123669e-03, -2.54114121e-01,
          4.51378489e+00, 7.07006693e-01, -1.13476765e+00,
          -2.33868256e-01, -1.18798161e+00, -3.98443580e-01,
          2.36270577e-02, 1.90927565e+00, -3.71999115e-01,
          1.24216819e+00, -1.10032272e+00, -1.69818744e-01,
          -1.17532337e+00, -3.73165160e-01, 8.83385539e-03,
          1.89722347e+00, -3.59362066e-01, 1.26145637e+00,
          -1.09501839e+00, -1.58457279e-01, -1.17037046e+00,
          -3.60673189e-01, 1.72785707e-02, 1.90452123e+00,
          -3.62847954e-01, 1.25581133e+00, -1.09586477e+00,
          -1.42261282e-01, -1.17361784e+00, -3.60194623e-01,
          1.18309781e-02, 1.89623904e+00, -3.66356879e-01,
          1.24560797e+00, -1.11737108e+00, -1.59882352e-01,
          -1.17417002e+00, -3.39396894e-01, 2.59664282e-02,
          1.90830171e+00, -3.73568624e-01, 1.23278582e+00,
          -1.07514095e+00, -8.49920288e-02, -1.16062105e+00,
          -3.22052151e-01, 6.59841765e-03, 1.88756645e+00,
          -3.82027477e-01, 1.22672164e+00, -1.07548940e+00,
          -9.32542980e-02, -1.16008317e+00, -3.36846620e-01,
          2.48026248e-04, 1.87963998e+00, -3.90304744e-01,
          1.22134686e+00, -1.08899128e+00, -1.36338517e-01,
          -1.17146027e+00, -3.61467272e-01, 2.88474560e-03,
          1.88166463e+00, -3.84372205e-01, 1.23094678e+00,
          2.44947910e+00, -4.01178241e-01, -4.09001410e-01,
          -4.09816623e-01, -4.09827620e-01, -4.09827650e-01,
          -4.09827620e-01 ]
      - [ 3.73698413e-01, -3.16713214e-01, 4.15862240e-02,
          -4.23065454e-01, -4.19095367e-01, -4.23065454e-01,
          -4.23065454e-01, -4.23065454e-01, -4.22225624e-01,
          -4.23065454e-01, -4.23065454e-01, -4.23065454e-01,
          -4.22912776e-01, -4.23065454e-01, -4.23065454e-01,
          -4.23065454e-01, -4.22989100e-01, -4.23065454e-01,
          -4.23065454e-01, 3.89044285e-01, 5.39744552e-03,
          3.34133077e+00, 2.92966437e+00, -1.17350698e+00,
          -3.26647669e-01, -1.24109685e+00, -5.25661111e-01,
          1.19943805e-01, 1.73405731e+00, -1.23115927e-01,
          1.38665509e+00, -1.12724245e+00, -2.43790969e-01,
          -1.23214948e+00, -5.24101436e-01, 1.27045423e-01,
          1.73971069e+00, -1.13152884e-01, 1.39595091e+00,
          -1.13051176e+00, -2.66812533e-01, -1.22779584e+00,
          -5.22779644e-01, 1.37905866e-01, 1.74443257e+00,
          -1.21353775e-01, 1.38245440e+00, -1.13763332e+00,
          -2.82527149e-01, -1.22952974e+00, -5.19537866e-01,
          1.28937870e-01, 1.74111927e+00, -1.32166043e-01,
          1.36730504e+00, -1.15931427e+00, -2.84192234e-01,
          -1.23155606e+00, -4.96008843e-01, 1.24249086e-01,
          1.73253787e+00, -1.43561274e-01, 1.35668695e+00,
          -1.09934938e+00, -1.69303685e-01, -1.20457327e+00,
          -4.29739535e-01, 1.11653544e-01, 1.71770096e+00,
          -1.47944346e-01, 1.35508180e+00, -1.10415268e+00,
          -1.83204502e-01, -1.20177054e+00, -4.29357022e-01,
          1.15098253e-01, 1.72165906e+00, -1.48065060e-01,
          1.35778904e+00, -1.12303245e+00, -2.33794913e-01,
          -1.21671259e+00, -4.69864935e-01, 1.14726588e-01,
          1.72792387e+00, -1.37133569e-01, 1.37311935e+00,
          2.44948816e+00, -4.05464411e-01, -4.08521056e-01,
          -4.08867598e-01, -4.08878326e-01, -4.08878356e-01,
          -4.08878326e-01 ]
      - [ 3.45073283e-01, 1.05175698e+00, 2.40638518e+00,
          -4.93955016e-01, -4.87065852e-01, -5.05557835e-01,
          -5.11721790e-01, -5.11721790e-01, -5.08095920e-01,
          -5.11721790e-01, -5.11721790e-01, -5.11721790e-01,
          -4.23250377e-01, -5.11721790e-01, -5.11721790e-01,
          -5.11721790e-01, -2.88005114e-01, -5.11721790e-01,
          -5.11721790e-01, -9.72838998e-02, -2.65162081e-01,
          3.29254985e+00, 1.08982873e+00, -1.02749372e+00,
          -7.23244697e-02, -1.06663084e+00, -2.52175808e-01,
          -3.93121988e-01, 1.74898756e+00, -4.97218907e-01,
          1.49986005e+00, -1.00458610e+00, -9.37842019e-03,
          -1.05646002e+00, -2.09300190e-01, -3.95715415e-01,
          1.74388194e+00, -4.94328827e-01, 1.50699425e+00,
          -1.00793087e+00, -3.64151560e-02, -1.05866253e+00,
          -2.30370238e-01, -3.88288528e-01, 1.75424099e+00,
          -4.92004514e-01, 1.50971365e+00, -1.01056373e+00,
          -4.54266258e-02, -1.06762135e+00, -2.70255387e-01,
          -3.83425325e-01, 1.76647878e+00, -4.90596026e-01,
          1.51125968e+00, -1.03812349e+00, -1.40836716e-01,
          -1.07696795e+00, -3.10724169e-01, -3.78198832e-01,
          1.77430463e+00, -4.89786595e-01, 1.51100373e+00,
          -1.00773287e+00, -3.93351801e-02, -1.07175958e+00,
          -3.07218879e-01, -3.80466402e-01, 1.77143049e+00,
          -4.90268230e-01, 1.51039636e+00, -1.00997555e+00,
          -5.18737100e-02, -1.06261194e+00, -2.62999862e-01,
          -3.77595782e-01, 1.77050614e+00, -4.92887497e-01,
          1.50505865e+00, -1.00160134e+00, -3.69642861e-03,
          -1.06087399e+00, -2.47601599e-01, -3.88008595e-01,
          1.75917733e+00, -4.94387329e-01, 1.50253344e+00,
          2.44948983e+00, -4.08248305e-01, -4.08248305e-01,
          -4.08248305e-01, -4.08248305e-01, -4.08248305e-01,
          -4.08248305e-01 ]
      - [ 4.69615549e-01, -2.95845389e-01, 1.25436395e-01,
          -4.11024272e-01, -4.09123838e-01, -4.11024272e-01,
          -4.11024272e-01, -4.11024272e-01, -4.10209805e-01,
          -4.11024272e-01, -4.11024272e-01, -4.11024272e-01,
          -4.10549164e-01, -4.11024272e-01, -4.11024272e-01,
          -4.11024272e-01, -4.10820633e-01, -4.11024272e-01,
          -4.11024272e-01, 3.58305395e-01, -5.59177138e-02,
          1.98180473e+00, 3.98959565e+00, -1.17317009e+00,
          -3.41548592e-01, -1.24951303e+00, -5.63758135e-01,
          1.72264561e-01, 1.70050371e+00, -5.98365963e-02,
          1.40575397e+00, -1.14128947e+00, -3.03464770e-01,
          -1.24201405e+00, -5.58574915e-01, 1.71623200e-01,
          1.70236349e+00, -4.89542708e-02, 1.41368139e+00,
          -1.14316332e+00, -3.06488812e-01, -1.23814380e+00,
          -5.46277285e-01, 1.79884717e-01, 1.70497906e+00,
          -5.74923903e-02, 1.40159321e+00, -1.14424896e+00,
          -2.96086580e-01, -1.24090111e+00, -5.37540317e-01,
          1.64986491e-01, 1.69383669e+00, -6.74579889e-02,
          1.38988805e+00, -1.17633712e+00, -3.32913488e-01,
          -1.24451995e+00, -5.27265787e-01, 1.52234748e-01,
          1.67977750e+00, -8.00492465e-02, 1.37841713e+00,
          -1.11186421e+00, -2.13459447e-01, -1.22010648e+00,
          -4.90010679e-01, 1.38490945e-01, 1.66759109e+00,
          -9.02766585e-02, 1.37318218e+00, -1.10195601e+00,
          -1.96348906e-01, -1.21233404e+00, -4.80892241e-01,
          1.50840208e-01, 1.67544365e+00, -8.48577395e-02,
          1.38044441e+00, -1.11189497e+00, -2.16825470e-01,
          -1.22337139e+00, -5.05033493e-01, 1.66399524e-01,
          1.69287264e+00, -7.11757243e-02, 1.39436495e+00,
          2.44867849e+00, -3.45974624e-01, -4.19035316e-01,
          -4.20670569e-01, -4.20999795e-01, -4.20998305e-01,
          -4.20999795e-01 ]
      - [ -2.12799329e-02, 1.23964153e-01, 4.43989420e+00,
          -3.60133350e-01, -2.66221702e-01, -3.47226053e-01,
          -3.61023486e-01, -3.61023486e-01, -3.25713903e-01,
          -3.61023486e-01, -3.61023486e-01, -3.61023486e-01,
          -1.67859256e-01, -3.61023486e-01, -3.61023486e-01,
          -3.61023486e-01, -3.18147570e-01, -3.61023486e-01,
          -3.61023486e-01, -3.14586937e-01, -2.53462762e-01,
          3.65048558e-01, 1.05595934e+00, -1.04634213e+00,
          -1.26571536e-01, -1.10932648e+00, -3.78512472e-01,
          -2.23841250e-01, 1.69898224e+00, -3.23550493e-01,
          1.52973664e+00, -1.03978944e+00, -1.53378844e-01,
          -1.11167228e+00, -3.98995012e-01, -2.25288570e-01,
          1.69871962e+00, -3.12087089e-01, 1.55080760e+00,
          -1.05266035e+00, -2.05240160e-01, -1.11754334e+00,
          -4.15043950e-01, -2.20767722e-01, 1.70239151e+00,
          -3.01657617e-01, 1.57383728e+00, -1.06235206e+00,
          -2.30742291e-01, -1.12599730e+00, -4.26703244e-01,
          -2.19590768e-01, 1.70582223e+00, -2.94040799e-01,
          1.59017420e+00, -1.08967853e+00, -2.72748500e-01,
          -1.13355303e+00, -4.29150671e-01, -2.20936820e-01,
          1.70251274e+00, -2.94377506e-01, 1.58807862e+00,
          -1.04923666e+00, -1.87374949e-01, -1.11880636e+00,
          -4.11100119e-01, -2.21480772e-01, 1.70433962e+00,
          -3.07476938e-01, 1.56757152e+00, -1.03510714e+00,
          -1.35203987e-01, -1.10271454e+00, -3.63790005e-01,
          -2.26616338e-01, 1.69367814e+00, -3.16853285e-01,
          1.54530036e+00, -1.01252151e+00, -4.01551239e-02,
          -1.09576225e+00, -3.37036461e-01, -2.31328517e-01,
          1.68966973e+00, -3.21680337e-01, 1.53476334e+00,
          2.44948745e+00, -4.05085802e-01, -4.08255517e-01,
          -4.09033179e-01, -4.09037679e-01, -4.09037739e-01,
          -4.09037679e-01 ]
      - [ 2.58565634e-01, -5.88877201e-02, -1.90470144e-01,
          -3.67149651e-01, -3.64139616e-01, -3.67149651e-01,
          -3.67149651e-01, -3.67149651e-01, -3.65805894e-01,
          -3.67149651e-01, -3.67149651e-01, -3.67149651e-01,
          -3.65644634e-01, -3.67149651e-01, -3.67149651e-01,
          -3.67149651e-01, -3.66504639e-01, -3.67149651e-01,
          -3.67149651e-01, -2.36803502e-01, -7.61955380e-02,
          3.98990583e+00, 2.18177629e+00, -1.14512122e+00,
          -3.93350691e-01, -1.21750987e+00, -5.86715221e-01,
          3.14275682e-01, 1.71424067e+00, -1.97473634e-02,
          1.28183031e+00, -1.10289168e+00, -3.28815907e-01,
          -1.20568514e+00, -5.77537835e-01, 3.12677860e-01,
          1.71381950e+00, -2.05917843e-02, 1.27917242e+00,
          -1.11007905e+00, -3.47836763e-01, -1.20801163e+00,
          -5.95361173e-01, 3.23576033e-01, 1.72208750e+00,
          -1.18846018e-02, 1.28520370e+00, -1.12620914e+00,
          -3.89431447e-01, -1.22118926e+00, -6.22931063e-01,
          3.22434664e-01, 1.72383213e+00, 2.00126949e-03, 1.30272412e+00,
          -1.17410064e+00, -4.70765173e-01, -1.23769581e+00,
          -6.46164775e-01, 3.29318404e-01, 1.72795784e+00,
          7.22035021e-03, 1.31123316e+00, -1.13298845e+00,
          -4.18934882e-01, -1.22229505e+00, -6.21551216e-01,
          3.17817211e-01, 1.71936810e+00, 6.27291854e-03, 1.31586814e+00,
          -1.11973548e+00, -3.75067055e-01, -1.21051240e+00,
          -5.91277361e-01, 3.18018943e-01, 1.71655118e+00,
          -3.70856724e-03, 1.30536580e+00, -1.10626864e+00,
          -3.36265445e-01, -1.20763624e+00, -5.73816419e-01,
          3.09985846e-01, 1.71216595e+00, -1.03609096e-02,
          1.29502594e+00, 2.44948554e+00, -4.03769195e-01,
          -4.09036219e-01, -4.09168690e-01, -4.09170479e-01,
          -4.09170508e-01, -4.09170479e-01 ]
      - [ 3.35936368e-01, 3.64986181e+00, 1.79402292e+00,
          -4.06399190e-01, -3.83010536e-01, -4.06544477e-01,
          -4.06544477e-01, -4.06544477e-01, -4.04510677e-01,
          -4.06544477e-01, -4.06544477e-01, -4.06544477e-01,
          -4.05963391e-01, -4.06544477e-01, -4.06544477e-01,
          -4.06544477e-01, -4.06544477e-01, -4.06544477e-01,
          -4.06544477e-01, -3.94922763e-01, -3.64706367e-01,
          1.81799257e+00, -3.59767169e-01, -1.11849260e+00,
          -9.12300721e-02, -1.21086669e+00, -3.45491588e-01,
          4.45066951e-02, 1.76894701e+00, -3.11444253e-01,
          1.24863148e+00, -1.09444225e+00, -4.58136834e-02,
          -1.20327497e+00, -3.29528123e-01, 5.17348051e-02,
          1.77777445e+00, -3.11322182e-01, 1.23772144e+00,
          -1.11424732e+00, -1.03928842e-01, -1.21508908e+00,
          -3.63127083e-01, 1.07107788e-01, 1.83650124e+00,
          -2.95371145e-01, 1.24307489e+00, -1.13212454e+00,
          -1.58945128e-01, -1.23524821e+00, -4.19660509e-01,
          1.29174739e-01, 1.85984218e+00, -2.69121945e-01,
          1.26805031e+00, -1.17948830e+00, -2.65204221e-01,
          -1.25732291e+00, -4.88709390e-01, 1.43702745e-01,
          1.87809777e+00, -2.53668934e-01, 1.28326786e+00,
          -1.15106797e+00, -2.24173099e-01, -1.24864209e+00,
          -4.83909965e-01, 1.42316699e-01, 1.87447357e+00,
          -2.62274414e-01, 1.27908278e+00, -1.13625920e+00,
          -1.76415175e-01, -1.23053920e+00, -4.32464182e-01,
          1.19215712e-01, 1.84087861e+00, -2.79872239e-01,
          1.27223754e+00, -1.10363412e+00, -9.16571990e-02,
          -1.21340334e+00, -3.70040148e-01, 5.59003465e-02,
          1.78292656e+00, -2.93519706e-01, 1.26586854e+00,
          2.38346696e+00, 1.59667239e-01, -5.00831842e-01,
          -5.07950187e-01, -5.11746347e-01, -5.10857284e-01,
          -5.11748493e-01 ]
      - [ 3.82290691e-01, 6.21452332e-01, -2.80141719e-02,
          -3.22907090e-01, -3.21026385e-01, -3.22907090e-01,
          -3.22907090e-01, -3.22907090e-01, -3.22907090e-01,
          -3.22907090e-01, -3.22907090e-01, -3.22907090e-01,
          -3.22907090e-01, -3.22907090e-01, -3.22907090e-01,
          -3.22907090e-01, -3.22907090e-01, -3.22907090e-01,
          -3.22907090e-01, -9.40892398e-02, -1.98279724e-01,
          4.55479956e+00, -7.35269785e-02, -1.12164664e+00,
          -2.25661114e-01, -1.20029652e+00, -4.78818446e-01,
          1.18902765e-01, 1.85256469e+00, -2.75927573e-01,
          1.23617435e+00, -1.08285570e+00, -1.62591219e-01,
          -1.18993902e+00, -4.66172606e-01, 1.13930292e-01,
          1.84061861e+00, -2.81935632e-01, 1.22788525e+00,
          -1.09451413e+00, -1.91522032e-01, -1.19025815e+00,
          -4.67363954e-01, 1.31151378e-01, 1.85879421e+00,
          -2.84622371e-01, 1.21328008e+00, -1.10141981e+00,
          -1.88241020e-01, -1.19711995e+00, -4.61250305e-01,
          1.38385221e-01, 1.87206376e+00, -2.75795996e-01,
          1.21457791e+00, -1.13829792e+00, -2.56053954e-01,
          -1.20772660e+00, -4.71325397e-01, 1.53399810e-01,
          1.89114964e+00, -2.70880163e-01, 1.21026886e+00,
          -1.10144365e+00, -1.83285326e-01, -1.19711661e+00,
          -4.51940358e-01, 1.56572908e-01, 1.89780772e+00,
          -2.63512969e-01, 1.21953893e+00, -1.09823382e+00,
          -1.84743926e-01, -1.19142294e+00, -4.50724840e-01,
          1.54161721e-01, 1.89455426e+00, -2.63629735e-01,
          1.23006356e+00, -1.09485948e+00, -1.81948140e-01,
          -1.19230342e+00, -4.59187716e-01, 1.30215436e-01,
          1.86941326e+00, -2.66943395e-01, 1.23805821e+00,
          2.44948959e+00, -4.08024222e-01, -4.07892764e-01,
          -4.08391625e-01, -4.08393711e-01, -4.08393681e-01,
          -4.08393711e-01 ]
      - [ 1.79312420e+00, -3.46925929e-02, 4.23698902e+00,
          -3.21913391e-01, -2.79989541e-01, -3.24877709e-01,
          -3.24877709e-01, -3.24877709e-01, -3.15243691e-01,
          -3.24877709e-01, -3.24877709e-01, -3.24771821e-01,
          -2.54581124e-01, -3.24877709e-01, -3.24877709e-01,
          -3.24454218e-01, -2.70778984e-01, -3.24877709e-01,
          -3.24877709e-01, -2.86024034e-01, -2.07787320e-01,
          -3.06880087e-01, -1.79096997e-01, -1.18681288e+00,
          -4.35606182e-01, -1.19942307e+00, -4.58623290e-01,
          6.83819503e-02, 1.61084998e+00, -1.59565378e-02,
          1.53040862e+00, -1.13549995e+00, -4.11522537e-01,
          -1.20032895e+00, -5.14198124e-01, 6.15589581e-02,
          1.60924578e+00, -2.60971040e-02, 1.52518666e+00,
          -1.12729120e+00, -3.82326722e-01, -1.19373071e+00,
          -5.20577669e-01, 8.87400806e-02, 1.62219584e+00,
          -3.34662795e-02, 1.51946235e+00, -1.11889827e+00,
          -3.39352816e-01, -1.19674814e+00, -4.97539759e-01,
          7.94617981e-02, 1.61485445e+00, -3.60348485e-02,
          1.51832879e+00, -1.18100286e+00, -4.04041201e-01,
          -1.21849418e+00, -5.40488541e-01, 5.82227893e-02,
          1.60292220e+00, -3.82146537e-02, 1.51986980e+00,
          -1.13308465e+00, -4.15521711e-01, -1.18763137e+00,
          -4.88690823e-01, 5.49136885e-02, 1.60248744e+00,
          -3.70601304e-02, 1.51772773e+00, -1.09755850e+00,
          -2.96862811e-01, -1.16790450e+00, -4.34820175e-01,
          7.48339817e-02, 1.61299694e+00, -2.90246699e-02,
          1.51850188e+00, -1.08950973e+00, -2.47891083e-01,
          -1.17079914e+00, -4.06626582e-01, 7.75038004e-02,
          1.61626399e+00, -1.70718357e-02, 1.52741456e+00,
          2.43630648e+00, -1.57612354e-01, -4.26760554e-01,
          -4.58230287e-01, -4.64287996e-01, -4.65121448e-01,
          -4.64293748e-01 ]
      - [ 2.26115417e+00, -2.71765113e-01, 3.99826503e+00,
          -3.13159436e-01, -2.68696785e-01, -3.21192831e-01,
          -3.21192831e-01, -3.21025461e-01, -3.07413310e-01,
          -3.21192831e-01, -3.21192831e-01, -3.20746511e-01,
          -1.47303224e-01, -3.21192831e-01, -3.21192831e-01,
          -3.18068713e-01, -2.65907407e-01, -3.21192831e-01,
          -3.21192831e-01, -3.11932087e-01, -2.78794318e-01,
          -3.20802301e-01, -2.44261876e-01, -1.22706938e+00,
          -7.09095299e-01, -1.25334585e+00, -7.98017144e-01,
          2.46041358e-01, 1.56535077e+00, 1.47739336e-01, 1.50388312e+00,
          -1.14128482e+00, -5.76681733e-01, -1.20782733e+00,
          -6.72617614e-01, 2.12292805e-01, 1.54658580e+00,
          1.41043261e-01, 1.49447870e+00, -1.08685458e+00,
          -3.79989177e-01, -1.15076673e+00, -4.75944072e-01,
          2.04800665e-01, 1.53672838e+00, 1.34356692e-01, 1.48055136e+00,
          -1.04782188e+00, -2.24801809e-01, -1.13381469e+00,
          -3.85451019e-01, 2.03618377e-01, 1.53581166e+00,
          1.31173566e-01, 1.47184920e+00, -1.13733983e+00,
          -3.55559826e-01, -1.16252768e+00, -4.24138397e-01,
          1.97827265e-01, 1.53105772e+00, 1.32104665e-01, 1.47463357e+00,
          -1.11681592e+00, -4.75438982e-01, -1.17602408e+00,
          -5.37668169e-01, 1.95067734e-01, 1.53716481e+00,
          1.35121465e-01, 1.48453546e+00, -1.13044190e+00,
          -5.49771965e-01, -1.20048666e+00, -6.73310280e-01,
          2.35925436e-01, 1.55579400e+00, 1.42933056e-01, 1.49662089e+00,
          -1.15022206e+00, -6.17983043e-01, -1.22764003e+00,
          -7.51720428e-01, 2.60087699e-01, 1.56954443e+00,
          1.50643259e-01, 1.50310600e+00, 2.36772323e+00, 2.22297192e-01,
          -4.70904738e-01, -5.23303330e-01, -5.31515419e-01,
          -5.32812178e-01, -5.31484663e-01 ]
      - [ 1.63165581e+00, -2.60575831e-01, 4.31612206e+00,
          -2.98681855e-01, -2.38454029e-01, -3.04731160e-01,
          -3.04863602e-01, -3.04863602e-01, -2.91528702e-01,
          -3.04863602e-01, -3.04863602e-01, -3.04863602e-01,
          -1.74296364e-01, -3.04863602e-01, -3.04863602e-01,
          -3.03494811e-01, -2.58897930e-01, -3.04863602e-01,
          -3.04863602e-01, -2.93427378e-01, -2.47550026e-01,
          -2.96915650e-01, -2.35451460e-01, -1.20645547e+00,
          -6.91053450e-01, -1.23175502e+00, -7.79105127e-01,
          2.32788920e-01, 1.58271372e+00, 1.35249674e-01, 1.51946032e+00,
          -1.13391387e+00, -5.99983156e-01, -1.20439279e+00,
          -7.35905230e-01, 2.07787439e-01, 1.56971240e+00,
          1.26105249e-01, 1.51481616e+00, -1.11065614e+00,
          -5.28578520e-01, -1.15857935e+00, -5.77818215e-01,
          1.78444564e-01, 1.55264521e+00, 1.12279244e-01, 1.49568939e+00,
          -1.06103277e+00, -3.08215946e-01, -1.12881768e+00,
          -4.27015543e-01, 1.65374979e-01, 1.53816855e+00,
          1.11872114e-01, 1.48972332e+00, -1.09491074e+00,
          -2.66724974e-01, -1.13740754e+00, -4.01100218e-01,
          1.78352267e-01, 1.54666007e+00, 1.12675466e-01, 1.48730040e+00,
          -1.08418560e+00, -3.99776936e-01, -1.13657236e+00,
          -4.57338721e-01, 1.72024161e-01, 1.54583907e+00,
          1.15992971e-01, 1.49289632e+00, -1.11511397e+00,
          -5.44641376e-01, -1.17114413e+00, -6.29760087e-01,
          1.87736109e-01, 1.55873573e+00, 1.21498190e-01, 1.50561714e+00,
          -1.13269103e+00, -5.96451640e-01, -1.20650673e+00,
          -7.42331207e-01, 2.19563127e-01, 1.57511783e+00,
          1.30674705e-01, 1.51642072e+00, 2.35707569e+00, 2.63658583e-01,
          -4.95849520e-01, -5.26645362e-01, -5.32723725e-01,
          -5.32802045e-01, -5.32713592e-01 ]
      - [ -3.03862691e-01, 4.23941278e+00, -3.03862691e-01,
          -2.98986167e-01, -3.03862691e-01, -3.03862691e-01,
          -3.03862691e-01, -3.03862691e-01, -3.03862691e-01,
          -3.03862691e-01, -3.03862691e-01, -3.03862691e-01,
          -3.03862691e-01, -3.03862691e-01, -3.03862691e-01,
          4.64327894e-02, -3.01424414e-01, -3.03862691e-01,
          -3.03862691e-01, 1.78409338e+00, -3.03862691e-01,
          -3.03862691e-01, -3.03862691e-01, -9.45015311e-01,
          -3.53601813e-01, -9.65802312e-01, -4.44076002e-01,
          2.70805269e-01, 2.30826402e+00, -4.40654874e-01,
          6.08360171e-01, -9.24260974e-01, -2.94268698e-01,
          -9.56071258e-01, -4.20023203e-01, 2.60097235e-01,
          2.28812456e+00, -4.40611154e-01, 6.26786590e-01,
          -9.10169005e-01, -2.61305153e-01, -9.43740189e-01,
          -4.08467412e-01, 2.55126059e-01, 2.27988076e+00,
          -4.44833994e-01, 6.37775302e-01, -8.66949022e-01,
          -1.67986497e-01, -9.41159546e-01, -4.53272432e-01,
          2.10694954e-01, 2.21095085e+00, -4.43549216e-01,
          6.47079706e-01, -9.22303498e-01, -4.08416271e-01,
          -9.59874332e-01, -5.69910288e-01, 2.38707140e-01,
          2.25839281e+00, -4.44063842e-01, 6.38775229e-01,
          -9.38479364e-01, -4.97295171e-01, -9.73197460e-01,
          -6.26498342e-01, 2.63985276e-01, 2.28890300e+00,
          -4.44960684e-01, 6.13926768e-01, -9.34915960e-01,
          -4.17750031e-01, -9.69600439e-01, -5.39105296e-01,
          2.86724776e-01, 2.32859659e+00, -4.48225677e-01,
          5.80148041e-01, -9.30762887e-01, -3.31887066e-01,
          -9.65617299e-01, -4.67566580e-01, 2.69832432e-01,
          2.29775000e+00, -4.43534613e-01, 5.90095639e-01,
          2.44948983e+00, -4.08248305e-01, -4.08248305e-01,
          -4.08248305e-01, -4.08248305e-01, -4.08248305e-01,
          -4.08248305e-01 ]
      - [ 4.27818000e-01, 1.87288985e-01, 4.60914040e+00,
          -2.86887974e-01, 8.75649527e-02, -3.01779836e-01,
          -3.01882535e-01, -2.99931169e-01, -2.51044840e-01,
          -3.01882535e-01, -3.01882535e-01, -3.00752789e-01,
          -8.72345194e-02, -3.01882535e-01, -3.01882535e-01,
          -2.99828470e-01, -2.57104278e-01, -3.01882535e-01,
          -3.01882535e-01, -2.57412374e-01, -2.62855619e-01,
          -2.92228490e-01, -3.01574409e-01, -1.05655062e+00,
          -1.07556142e-01, -1.09348750e+00, -2.51475006e-01,
          -1.71144202e-01, 1.67018139e+00, -2.61528909e-01,
          1.54619896e+00, -1.01294613e+00, -5.46594523e-02,
          -1.07515085e+00, -2.17658326e-01, -1.75078094e-01,
          1.66396928e+00, -2.58748710e-01, 1.54940271e+00,
          -1.05785966e+00, -2.54648000e-01, -1.09159029e+00,
          -3.07556599e-01, -1.79316387e-01, 1.66640854e+00,
          -2.53357857e-01, 1.55784786e+00, -1.07950997e+00,
          -3.40370148e-01, -1.12517262e+00, -4.34187233e-01,
          -1.66259274e-01, 1.68345845e+00, -2.46654168e-01,
          1.57653701e+00, -1.11837471e+00, -3.74321878e-01,
          -1.14684284e+00, -4.76528913e-01, -1.36821449e-01,
          1.70834267e+00, -2.41149843e-01, 1.58345664e+00,
          -1.07834935e+00, -3.34114462e-01, -1.13786948e+00,
          -4.83839512e-01, -1.37107238e-01, 1.70727110e+00,
          -2.44397238e-01, 1.58224750e+00, -1.08456194e+00,
          -3.81298006e-01, -1.13053644e+00, -4.88334090e-01,
          -1.57464266e-01, 1.68840683e+00, -2.51785278e-01,
          1.57404590e+00, -1.07509863e+00, -3.22887242e-01,
          -1.10941958e+00, -3.65792781e-01, -1.76480040e-01,
          1.67004633e+00, -2.57580638e-01, 1.55560088e+00,
          2.38796663e+00, 1.32701650e-01, -4.18891400e-01,
          -5.14475524e-01, -5.27963817e-01, -5.31453669e-01,
          -5.27884007e-01 ]
      - [ 9.97880623e-02, 7.97940969e-01, 4.54039621e+00,
          -2.92005092e-01, 6.35565743e-02, -3.26628685e-01,
          -3.26628685e-01, -3.15266132e-01, -1.35287836e-01,
          -3.26628685e-01, -3.26628685e-01, -3.18267554e-01,
          2.87186038e-02, -3.26628685e-01, -3.26628685e-01,
          -3.25449556e-01, -3.09584856e-01, -3.26628685e-01,
          -3.26628685e-01, -2.86216646e-01, -3.05082738e-01,
          -3.05511504e-01, -3.24699193e-01, -1.04130554e+00,
          -6.25375137e-02, -1.08855236e+00, -2.37522915e-01,
          -1.47064567e-01, 1.66042233e+00, -2.38458157e-01,
          1.53845012e+00, -1.02876806e+00, -1.27069741e-01,
          -1.07925093e+00, -2.37864569e-01, -1.54693618e-01,
          1.65428960e+00, -2.37351969e-01, 1.53972614e+00,
          -1.06637239e+00, -2.96075344e-01, -1.10348403e+00,
          -3.62323850e-01, -1.51375800e-01, 1.66499794e+00,
          -2.30030522e-01, 1.55559754e+00, -1.08149993e+00,
          -3.50379676e-01, -1.13087845e+00, -4.54707325e-01,
          -1.28731072e-01, 1.68690729e+00, -2.20335692e-01,
          1.57502997e+00, -1.12659192e+00, -4.11103010e-01,
          -1.15396190e+00, -5.02670109e-01, -1.04473315e-01,
          1.70761383e+00, -2.12257802e-01, 1.58509862e+00,
          -1.09490490e+00, -4.08069730e-01, -1.14910793e+00,
          -5.37942410e-01, -1.12469450e-01, 1.70182979e+00,
          -2.16640964e-01, 1.58323395e+00, -1.09428620e+00,
          -4.32357252e-01, -1.13130689e+00, -4.97190207e-01,
          -1.33346066e-01, 1.68384492e+00, -2.23892018e-01,
          1.56926084e+00, -1.05676377e+00, -2.48180896e-01,
          -1.10178971e+00, -3.34469736e-01, -1.45368651e-01,
          1.66695881e+00, -2.34257698e-01, 1.54677463e+00,
          2.38348031e+00, 1.53532729e-01, -4.27385658e-01,
          -5.16780913e-01, -5.29765666e-01, -5.33381760e-01,
          -5.29698968e-01 ]
      - [ 3.74011326e+00, -3.56684208e-01, 2.60090327e+00,
          -3.61862928e-01, -3.71141471e-02, -3.62186581e-01,
          -3.62078696e-01, -3.62186581e-01, -1.69063568e-01,
          -3.62186581e-01, -3.62186581e-01, -3.62186581e-01,
          1.33999333e-01, -3.62186581e-01, -3.62186581e-01,
          -3.62078696e-01, -2.73716807e-01, -3.62186581e-01,
          -3.62186581e-01, -3.42766404e-01, -2.64761955e-01,
          -3.61215591e-01, -3.23993534e-01, -1.16333616e+00,
          -4.47386205e-01, -1.19393229e+00, -5.59582770e-01,
          -1.18491277e-01, 1.68024969e+00, -2.19105884e-01,
          1.57077026e+00, -1.10495281e+00, -3.80434364e-01,
          -1.14915848e+00, -4.20130521e-01, -1.50018170e-01,
          1.64966166e+00, -2.25245506e-01, 1.55591822e+00,
          -1.04197204e+00, -1.13423929e-01, -1.10000241e+00,
          -2.38221124e-01, -1.45264789e-01, 1.64789033e+00,
          -2.23203957e-01, 1.55296075e+00, -1.01045740e+00,
          1.02767944e-02, -1.08956933e+00, -1.73583537e-01,
          -1.43326089e-01, 1.65244567e+00, -2.19672918e-01,
          1.55111146e+00, -1.10993135e+00, -2.19198629e-01,
          -1.12226570e+00, -2.54801869e-01, -1.47648528e-01,
          1.64465487e+00, -2.23152950e-01, 1.54642093e+00,
          -1.08983111e+00, -3.06418955e-01, -1.13935590e+00,
          -3.79127413e-01, -1.59676164e-01, 1.64283049e+00,
          -2.19429299e-01, 1.56038427e+00, -1.08813190e+00,
          -3.19443047e-01, -1.15316892e+00, -4.64690179e-01,
          -1.13998488e-01, 1.67740774e+00, -2.17277959e-01,
          1.56903410e+00, -1.09867048e+00, -3.46319318e-01,
          -1.17240798e+00, -5.10927618e-01, -9.70997885e-02,
          1.69841146e+00, -2.07889259e-01, 1.58090591e+00,
          2.37846661e+00, 1.72604933e-01, -4.15301502e-01,
          -5.20445943e-01, -5.37439883e-01, -5.40592730e-01,
          -5.37291586e-01 ]
      - [ 2.92879844e+00, -2.40316227e-01, 3.51924181e+00,
          -3.31709832e-01, -3.04829359e-01, -3.39773953e-01,
          -3.39773953e-01, -3.38754356e-01, -3.20494175e-01,
          -3.39773953e-01, -3.39773953e-01, -3.39773953e-01,
          -2.66362488e-01, -3.39773953e-01, -3.39773953e-01,
          -3.28094870e-01, -1.28345177e-01, -3.39773953e-01,
          -3.39773953e-01, -3.12522739e-01, -2.23631799e-01,
          -2.89906055e-01, -3.05107415e-01, -1.15645564e+00,
          -5.34135222e-01, -1.17209208e+00, -5.73459685e-01,
          -1.62928235e-02, 1.64570975e+00, -9.53454599e-02,
          1.56882250e+00, -1.06301737e+00, -2.95057893e-01,
          -1.12497020e+00, -4.20000374e-01, -2.56781187e-02,
          1.63676143e+00, -9.45517272e-02, 1.56285501e+00,
          -1.03734303e+00, -2.02118754e-01, -1.09406292e+00,
          -3.23615760e-01, -3.33170407e-02, 1.62945545e+00,
          -1.00729436e-01, 1.54936779e+00, -1.04689252e+00,
          -2.27452531e-01, -1.10058010e+00, -3.26614052e-01,
          -4.36162464e-02, 1.62051344e+00, -1.04528315e-01,
          1.54356360e+00, -1.11747682e+00, -3.47514957e-01,
          -1.13422465e+00, -4.02956009e-01, -3.44383977e-02,
          1.62743235e+00, -1.06340565e-01, 1.54695106e+00,
          -1.08620918e+00, -3.93880814e-01, -1.14311421e+00,
          -4.97766018e-01, -2.21987721e-02, 1.64095938e+00,
          -1.01051897e-01, 1.55949247e+00, -1.09569418e+00,
          -4.61806476e-01, -1.15587020e+00, -5.97021520e-01,
          2.43519363e-03, 1.65512335e+00, -1.00666434e-01,
          1.56572676e+00, -1.11219192e+00, -5.29115856e-01,
          -1.17188156e+00, -6.51414096e-01, -7.69145368e-03,
          1.65504038e+00, -9.77258012e-02, 1.56996930e+00,
          2.40304947e+00, 6.00851104e-02, -4.11711276e-01,
          -5.02406001e-01, -5.15317380e-01, -5.18453419e-01,
          -5.15246570e-01 ]
      - [ 2.82452106e+00, 6.75529167e-02, 3.58024311e+00,
          -3.56359869e-01, -3.08418751e-01, -3.59666169e-01,
          -3.59666169e-01, -3.59548092e-01, -3.48330319e-01,
          -3.59666169e-01, -3.59666169e-01, -3.59666169e-01,
          -2.18676776e-01, -3.59666169e-01, -3.59666169e-01,
          -3.59429985e-01, -1.87149003e-01, -3.59666169e-01,
          -3.59666169e-01, -3.30854267e-01, -8.34733918e-02,
          -3.59548092e-01, -3.23533207e-01, -1.18417180e+00,
          -5.37323952e-01, -1.21785462e+00, -6.64882243e-01,
          -1.21158343e-02, 1.69496953e+00, -1.32857680e-01,
          1.58338714e+00, -1.13042915e+00, -4.74304199e-01,
          -1.19980288e+00, -6.45539641e-01, -3.49259563e-02,
          1.67776847e+00, -1.44615993e-01, 1.57400203e+00,
          -1.11643565e+00, -4.38231587e-01, -1.14957011e+00,
          -4.54079300e-01, -7.12949336e-02, 1.64648199e+00,
          -1.66103855e-01, 1.53885674e+00, -1.04511261e+00,
          -1.19227260e-01, -1.10007834e+00, -2.20514134e-01,
          -9.79005247e-02, 1.61379540e+00, -1.72813192e-01,
          1.52135992e+00, -1.04510450e+00, -1.09904315e-02,
          -1.08986151e+00, -1.46688253e-01, -9.51367840e-02,
          1.61542308e+00, -1.70021430e-01, 1.52041352e+00,
          -1.04657125e+00, -1.40446946e-01, -1.08820152e+00,
          -1.91158667e-01, -1.03272691e-01, 1.61022508e+00,
          -1.68025866e-01, 1.52481318e+00, -1.08929312e+00,
          -3.15557748e-01, -1.14160693e+00, -4.27027792e-01,
          -8.09428245e-02, 1.63803828e+00, -1.61270842e-01,
          1.53956079e+00, -1.11975074e+00, -4.28953171e-01,
          -1.18838239e+00, -5.90047717e-01, -3.42222527e-02,
          1.67681122e+00, -1.44129932e-01, 1.57094407e+00,
          2.31400990e+00, 4.04912949e-01, -4.96053070e-01,
          -5.49966395e-01, -5.56827724e-01, -5.59273303e-01,
          -5.56802213e-01 ]
      - [ 2.25103927e+00, -2.18075842e-01, 4.00062370e+00,
          -3.30774367e-01, -2.96056062e-01, -3.32094759e-01,
          -3.32094759e-01, -3.32094759e-01, -3.21920037e-01,
          -3.32094759e-01, -3.32094759e-01, -3.29686999e-01,
          -1.27668485e-01, -3.32094759e-01, -3.32094759e-01,
          -3.30929697e-01, -1.73571184e-01, -3.32094759e-01,
          -3.32094759e-01, -3.07861835e-01, -2.72289187e-01,
          -2.76172668e-01, -2.77803719e-01, -1.18750131e+00,
          -6.58072293e-01, -1.21117342e+00, -7.45733321e-01,
          8.67086053e-02, 1.63953161e+00, -9.01635457e-03,
          1.56072962e+00, -1.11476004e+00, -5.21107137e-01,
          -1.16677535e+00, -5.98291099e-01, 5.75820282e-02,
          1.61788416e+00, -1.90320238e-02, 1.54573274e+00,
          -1.05677056e+00, -2.94296175e-01, -1.10940111e+00,
          -3.88851106e-01, 4.20094617e-02, 1.60260212e+00,
          -2.92349514e-02, 1.52664244e+00, -1.01287353e+00,
          -1.18750133e-01, -1.08819914e+00, -2.85537630e-01,
          3.55294645e-02, 1.59439611e+00, -3.65886129e-02,
          1.51238096e+00, -1.09214675e+00, -2.54058391e-01,
          -1.11540723e+00, -3.36272299e-01, 2.95992456e-02,
          1.58687460e+00, -3.74466851e-02, 1.51528347e+00,
          -1.08703864e+00, -3.95137221e-01, -1.13564146e+00,
          -4.60603684e-01, 3.38079371e-02, 1.59939015e+00,
          -3.35539691e-02, 1.52657986e+00, -1.10922265e+00,
          -5.12594819e-01, -1.16639817e+00, -6.27833664e-01,
          7.24775270e-02, 1.62476420e+00, -1.93872731e-02,
          1.54809177e+00, -1.12528980e+00, -5.76404154e-01,
          -1.19289672e+00, -7.19313502e-01, 9.62041095e-02,
          1.64325750e+00, -9.43014678e-03, 1.55998254e+00,
          2.44948983e+00, -4.08248305e-01, -4.08248305e-01,
          -4.08248305e-01, -4.08248305e-01, -4.08248305e-01,
          -4.08248305e-01 ]
      - [ 2.21833229e+00, 3.57875496e-01, 3.96770525e+00,
          -3.47787470e-01, -2.85718977e-01, -3.59330982e-01,
          -3.59330982e-01, -3.59330982e-01, -3.44324440e-01,
          -3.59330982e-01, -3.59330982e-01, -3.59330982e-01,
          -2.54817903e-01, -3.59330982e-01, -3.59330982e-01,
          -3.55246365e-01, -1.71704724e-01, -3.59330982e-01,
          -3.59330982e-01, -3.16264838e-01, -1.75966933e-01,
          -3.58354211e-01, -3.40417385e-01, -1.19648302e+00,
          -6.00524127e-01, -1.22829092e+00, -7.15139866e-01,
          7.98624307e-02, 1.65507185e+00, -3.11095491e-02,
          1.56512117e+00, -1.13892829e+00, -5.29539585e-01,
          -1.21019912e+00, -6.95267618e-01, 6.42060712e-02,
          1.64457726e+00, -4.07872982e-02, 1.55894387e+00,
          -1.11849844e+00, -4.57058728e-01, -1.16747963e+00,
          -5.39875567e-01, 3.23838666e-02, 1.62134695e+00,
          -5.99975996e-02, 1.53143787e+00, -1.06472623e+00,
          -2.28041038e-01, -1.12362182e+00, -3.30688208e-01,
          4.25233366e-03, 1.59353876e+00, -6.81325197e-02,
          1.51339257e+00, -1.06952775e+00, -1.11707754e-01,
          -1.11201715e+00, -2.44888023e-01, 6.85292482e-03,
          1.59315991e+00, -6.71503022e-02, 1.51047587e+00,
          -1.05257583e+00, -1.87815428e-01, -1.10516369e+00,
          -2.72535056e-01, -2.29030731e-03, 1.58500242e+00,
          -6.34416193e-02, 1.51631021e+00, -1.09841681e+00,
          -3.76695991e-01, -1.14968383e+00, -4.73190665e-01,
          1.87469944e-02, 1.61117554e+00, -5.78634180e-02,
          1.52696431e+00, -1.12762046e+00, -4.81387913e-01,
          -1.19943798e+00, -6.49727762e-01, 5.89653179e-02,
          1.64153683e+00, -4.12634835e-02, 1.55546510e+00,
          2.30709553e+00, 4.24878240e-01, -4.90049571e-01,
          -5.52617371e-01, -5.62543929e-01, -5.64270318e-01,
          -5.62492490e-01 ]
      - [ 3.19203472e+00, -2.42164001e-01, 3.27660275e+00,
          -3.40520322e-01, -2.66293466e-01, -3.43048185e-01,
          -3.43048185e-01, -3.43048185e-01, -3.12943786e-01,
          -3.43048185e-01, -3.43048185e-01, -3.43048185e-01,
          -1.47139832e-01, -3.43048185e-01, -3.43048185e-01,
          -3.43048185e-01, -2.22975329e-01, -3.43048185e-01,
          -3.43048185e-01, -3.41554463e-01, -1.47944152e-01,
          -3.43048185e-01, -3.30523849e-01, -1.20528209e+00,
          -5.57753026e-01, -1.23771298e+00, -6.65772676e-01,
          8.88368767e-03, 1.68549228e+00, -1.16327092e-01,
          1.57441831e+00, -1.14383423e+00, -4.82327729e-01,
          -1.21862423e+00, -6.54038489e-01, -2.09476594e-02,
          1.66465855e+00, -1.32488430e-01, 1.56311166e+00,
          -1.12318778e+00, -4.10786450e-01, -1.15960491e+00,
          -4.34200823e-01, -5.82896471e-02, 1.63340855e+00,
          -1.51269585e-01, 1.53030109e+00, -1.04171312e+00,
          -7.68610612e-02, -1.10628879e+00, -1.91702724e-01,
          -7.97871500e-02, 1.60442126e+00, -1.55051664e-01,
          1.51605165e+00, -1.05373371e+00, 5.31818252e-03,
          -1.10285807e+00, -1.40815675e-01, -7.56716356e-02,
          1.61024618e+00, -1.52675271e-01, 1.51582956e+00,
          -1.05977464e+00, -1.48747042e-01, -1.10185337e+00,
          -1.86968446e-01, -8.70352983e-02, 1.59989429e+00,
          -1.51411250e-01, 1.51961029e+00, -1.10476267e+00,
          -3.32998514e-01, -1.16083634e+00, -4.41626966e-01,
          -6.41894713e-02, 1.62818718e+00, -1.45279184e-01,
          1.53486025e+00, -1.12878811e+00, -4.10590529e-01,
          -1.20966649e+00, -6.03960335e-01, -1.30079994e-02,
          1.66841495e+00, -1.27431139e-01, 1.56542659e+00,
          2.31781149e+00, 3.93777341e-01, -5.01227975e-01,
          -5.47611654e-01, -5.53528666e-01, -5.55706561e-01,
          -5.53513944e-01 ]
      - [ 3.98250914e+00, -2.54246414e-01, 2.26831746e+00,
          -3.36117178e-01, -3.04225236e-01, -3.40546608e-01,
          -3.40546608e-01, -3.39808375e-01, -3.32499802e-01,
          -3.40546608e-01, -3.40546608e-01, -3.39365423e-01,
          -2.81561285e-01, -3.40546608e-01, -3.40546608e-01,
          -3.26003283e-01, -1.38933435e-01, -3.40546608e-01,
          -3.40546608e-01, -2.99869627e-01, -1.68286469e-02,
          -3.28660935e-01, -2.28334218e-01, -1.20338941e+00,
          -6.04188144e-01, -1.22508407e+00, -6.75081730e-01,
          1.14087015e-01, 1.61042202e+00, 2.82545760e-02, 1.54357719e+00,
          -1.13513303e+00, -5.21801531e-01, -1.19953120e+00,
          -6.30711079e-01, 1.20106913e-01, 1.61383164e+00,
          2.70633809e-02, 1.53629065e+00, -1.10652590e+00,
          -4.20175821e-01, -1.17069197e+00, -5.38387239e-01,
          1.16528437e-01, 1.60551763e+00, 1.49309700e-02, 1.52541637e+00,
          -1.09108222e+00, -3.39885563e-01, -1.15779483e+00,
          -4.60749000e-01, 8.35905448e-02, 1.58693290e+00,
          6.91371504e-03, 1.51315129e+00, -1.14036989e+00,
          -3.54529738e-01, -1.16003311e+00, -4.16032553e-01,
          7.74193108e-02, 1.57743812e+00, 2.37917085e-03, 1.50778961e+00,
          -1.07503319e+00, -2.69550502e-01, -1.14494538e+00,
          -4.12804663e-01, 8.38545114e-02, 1.58767235e+00,
          8.64881277e-03, 1.51594269e+00, -1.09531653e+00,
          -3.64283800e-01, -1.15122545e+00, -4.57353681e-01,
          1.02238312e-01, 1.59312797e+00, 1.69338025e-02, 1.52418423e+00,
          -1.13012755e+00, -4.85501885e-01, -1.18994308e+00,
          -5.89753270e-01, 1.10624626e-01, 1.60791731e+00,
          2.19955649e-02, 1.53223538e+00, 2.44103956e+00,
          -2.06536829e-01, -4.39609796e-01, -4.47954416e-01,
          -4.48984981e-01, -4.48968410e-01, -4.48985249e-01 ]
      - [ 3.95026731e+00, -2.20199019e-01, 2.33292127e+00,
          -3.27435076e-01, -3.20777565e-01, -3.35739076e-01,
          -3.35739076e-01, -3.35094780e-01, -3.30513269e-01,
          -3.35739076e-01, -3.35739076e-01, -3.31372321e-01,
          -1.90848693e-01, -3.35739076e-01, -3.35739076e-01,
          -3.10111225e-01, -1.71162501e-01, -3.35739076e-01,
          -3.35739076e-01, -3.05458128e-01, -2.77396351e-01,
          -3.25931758e-01, -1.50975198e-01, -1.17509866e+00,
          -5.40619850e-01, -1.19841826e+00, -6.20679557e-01,
          1.23553529e-01, 1.60867941e+00, 4.54179868e-02, 1.54581797e+00,
          -1.10593212e+00, -4.46308583e-01, -1.16273928e+00,
          -5.34050584e-01, 1.01369455e-01, 1.59349740e+00,
          4.18514013e-02, 1.53875315e+00, -1.08208525e+00,
          -3.68497580e-01, -1.13529575e+00, -4.58679616e-01,
          9.91085693e-02, 1.59013712e+00, 2.84315366e-02, 1.52150440e+00,
          -1.06812680e+00, -3.07687402e-01, -1.13270736e+00,
          -4.21155453e-01, 9.25060436e-02, 1.58209562e+00,
          2.21906509e-02, 1.51505625e+00, -1.13383985e+00,
          -3.86180460e-01, -1.16027176e+00, -4.71379489e-01,
          9.33773294e-02, 1.58290660e+00, 1.94546059e-02, 1.51508081e+00,
          -1.09952509e+00, -4.34114486e-01, -1.16330922e+00,
          -5.49076915e-01, 9.33678970e-02, 1.58654809e+00,
          2.25446895e-02, 1.52459431e+00, -1.11682737e+00,
          -5.27223170e-01, -1.17514515e+00, -6.36384368e-01,
          1.23961441e-01, 1.60432172e+00, 2.97416430e-02, 1.53250241e+00,
          -1.12391400e+00, -5.29727042e-01, -1.19066632e+00,
          -6.56372607e-01, 1.31946534e-01, 1.61417472e+00,
          4.30731215e-02, 1.54447317e+00, 2.42705488e+00,
          -8.55937973e-02, -4.02117342e-01, -4.75537509e-01,
          -4.87453818e-01, -4.88883466e-01, -4.87468928e-01 ]
      - [ 3.03580689e+00, -2.52486646e-01, 3.42460108e+00,
          -3.33878040e-01, -3.19197536e-01, -3.42344910e-01,
          -3.42344910e-01, -3.40911001e-01, -3.36131305e-01,
          -3.42344910e-01, -3.42344910e-01, -3.37906629e-01,
          -1.30672708e-01, -3.42344910e-01, -3.42344910e-01,
          -3.35721612e-01, -2.30158642e-01, -3.42344910e-01,
          -3.42344910e-01, -3.03151429e-01, -2.66757458e-01,
          -3.34902257e-01, -1.99773446e-01, -1.20659435e+00,
          -6.98587596e-01, -1.22356987e+00, -7.42375553e-01,
          1.74609572e-01, 1.59454799e+00, 8.86098966e-02, 1.53321540e+00,
          -1.11113596e+00, -4.84700114e-01, -1.17430687e+00,
          -5.86713910e-01, 1.53801084e-01, 1.58049536e+00,
          8.01620260e-02, 1.51995552e+00, -1.06232071e+00,
          -3.02236736e-01, -1.12710333e+00, -4.29968566e-01,
          1.37713268e-01, 1.56698966e+00, 6.79905340e-02, 1.50123751e+00,
          -1.04943001e+00, -2.53234535e-01, -1.11697006e+00,
          -3.67487639e-01, 1.28624082e-01, 1.55856109e+00,
          6.11661412e-02, 1.49200094e+00, -1.12547600e+00,
          -3.48725259e-01, -1.14993942e+00, -4.29475337e-01,
          1.28773689e-01, 1.55833912e+00, 6.09931946e-02, 1.49641097e+00,
          -1.10517108e+00, -4.55624402e-01, -1.16274345e+00,
          -5.37643611e-01, 1.35244191e-01, 1.56859732e+00,
          6.73952401e-02, 1.50826395e+00, -1.12047684e+00,
          -5.45992672e-01, -1.18467891e+00, -6.72503054e-01,
          1.73563272e-01, 1.58852232e+00, 7.75142089e-02, 1.52315009e+00,
          -1.14354527e+00, -6.33479834e-01, -1.21205759e+00,
          -7.66298592e-01, 1.86853230e-01, 1.60080695e+00,
          8.56396481e-02, 1.53082013e+00, 2.39724708e+00, 9.41897929e-02,
          -4.50644225e-01, -5.04479945e-01, -5.11532009e-01,
          -5.13269663e-01, -5.11511087e-01 ]
      - [ -2.41053075e-01, 2.92348832e-01, -2.41053075e-01,
          -2.23435014e-01, -2.41053075e-01, -2.41053075e-01,
          -2.41053075e-01, -2.40749314e-01, -2.41053075e-01,
          -2.41053075e-01, -2.41053075e-01, -2.40141794e-01,
          -2.41053075e-01, -2.41053075e-01, -2.41053075e-01,
          -1.61468059e-01, -2.41053075e-01, -2.41053075e-01,
          -2.41053075e-01, 4.66253853e+00, -2.41053075e-01,
          -2.32244045e-01, -2.41053075e-01, -1.03058887e+00,
          -5.29582918e-01, -1.06761456e+00, -6.63459241e-01,
          4.80598330e-01, 1.99988651e+00, -2.71611005e-01,
          8.33902478e-01, -9.34676886e-01, -2.11021677e-01,
          -1.03720772e+00, -5.57470679e-01, 4.29980397e-01,
          1.97090387e+00, -2.69115239e-01, 8.63342226e-01,
          -9.78449643e-01, -3.70530128e-01, -1.03503072e+00,
          -5.47911942e-01, 4.82279599e-01, 2.04573679e+00,
          -2.60724097e-01, 8.73565197e-01, -9.98805225e-01,
          -3.97192061e-01, -1.04899025e+00, -5.54138124e-01,
          5.05897403e-01, 2.06850815e+00, -2.41851076e-01,
          8.74100268e-01, -1.02322292e+00, -4.02280658e-01,
          -1.06425476e+00, -5.66793978e-01, 5.31865418e-01,
          2.09330487e+00, -2.33707011e-01, 8.55434418e-01,
          -1.02585888e+00, -4.95656580e-01, -1.07177293e+00,
          -6.27072215e-01, 5.41528821e-01, 2.09339643e+00,
          -2.36876264e-01, 8.30305576e-01, -1.03909802e+00,
          -5.75085044e-01, -1.08441138e+00, -7.18823314e-01,
          5.53653002e-01, 2.09170246e+00, -2.52470464e-01,
          7.95954585e-01, -1.04539859e+00, -6.22566104e-01,
          -1.08692694e+00, -7.48477638e-01, 5.22260785e-01,
          2.04413986e+00, -2.62709647e-01, 8.07187676e-01,
          2.44838333e+00, -3.35799336e-01, -4.15864766e-01,
          -4.24137384e-01, -4.24195141e-01, -4.24191624e-01,
          -4.24195141e-01 ]
      - [ 1.07018399e+00, -8.99275318e-02, 4.50982523e+00,
          -2.73271143e-01, -2.45098829e-01, -2.77615160e-01,
          -2.76720822e-01, -2.77934581e-01, -2.73015618e-01,
          -2.78254002e-01, -2.78254002e-01, -2.77551293e-01,
          -2.69246519e-01, -2.78254002e-01, -2.78254002e-01,
          -2.76784688e-01, -2.71226883e-01, -2.78254002e-01,
          -2.78254002e-01, -2.74612665e-01, -2.73846090e-01,
          -2.75443166e-01, -2.78190106e-01, -1.17607784e+00,
          -6.83912933e-01, -1.20077515e+00, -7.76768982e-01,
          1.31341904e-01, 1.62837970e+00, 2.49478463e-02, 1.54765773e+00,
          -1.11337209e+00, -6.02041841e-01, -1.18003798e+00,
          -7.46176779e-01, 1.24785975e-01, 1.62338448e+00,
          2.11181659e-02, 1.54684794e+00, -1.09499788e+00,
          -5.36038578e-01, -1.14937472e+00, -6.43784940e-01,
          8.24045837e-02, 1.59761047e+00, 1.49844699e-02, 1.54201436e+00,
          -1.06483018e+00, -3.87739390e-01, -1.10743165e+00,
          -4.29488301e-01, 5.14217466e-02, 1.57313597e+00,
          2.00952142e-02, 1.53889012e+00, -1.04802525e+00,
          -1.78374872e-01, -1.09276998e+00, -3.26363921e-01,
          7.49837309e-02, 1.58457279e+00, 2.47653499e-02, 1.53794718e+00,
          -1.01492989e+00, -2.06866294e-01, -1.08307385e+00,
          -3.43215555e-01, 6.44435883e-02, 1.57803428e+00,
          2.27609612e-02, 1.53768814e+00, -1.08293283e+00,
          -4.83422905e-01, -1.11977279e+00, -5.15159428e-01,
          5.98376803e-02, 1.58090544e+00, 1.84648391e-02, 1.54003036e+00,
          -1.10920846e+00, -5.74774563e-01, -1.17217028e+00,
          -7.09012508e-01, 9.38602388e-02, 1.60508323e+00,
          1.65342707e-02, 1.54398978e+00, 2.33585429e+00, 3.37573498e-01,
          -5.17304361e-01, -5.36688268e-01, -5.39626479e-01,
          -5.40186584e-01, -5.39622188e-01 ]
      - [ 1.32339513e+00, 4.38146257e+00, -1.60203829e-01,
          -2.16308847e-01, -1.29655853e-01, 3.05588245e-01,
          -3.27658355e-01, -3.52699101e-01, -1.84900358e-01,
          -3.52182806e-01, -3.60959977e-01, -3.57001632e-01,
          -2.79039770e-01, -3.60873908e-01, -3.60959977e-01,
          -3.05973619e-01, -3.58722657e-01, -3.60787868e-01,
          -3.60959977e-01, -1.00054443e-01, -3.60013396e-01,
          -3.60529721e-01, -3.60959977e-01, -1.23678398e+00,
          1.04718305e-01, -1.39726746e+00, -2.74099410e-01,
          -3.77895571e-02, 1.69456887e+00, -3.98982733e-01,
          1.29782343e+00, -1.20356166e+00, 1.36405781e-01,
          -1.39355111e+00, -2.81257659e-01, -2.65060049e-02,
          1.70336747e+00, -3.87945026e-01, 1.30832887e+00,
          -1.18675113e+00, 1.73699364e-01, -1.37896144e+00,
          -2.44023249e-01, 5.46361727e-04, 1.71612501e+00,
          -3.88992250e-01, 1.30332255e+00, -1.16527832e+00,
          2.17766896e-01, -1.36583734e+00, -2.09035769e-01,
          -2.42916979e-02, 1.70311093e+00, -3.99947912e-01,
          1.28975856e+00, -1.19314468e+00, 1.95141107e-01,
          -1.34967399e+00, -1.54957116e-01, -5.18099070e-02,
          1.67752266e+00, -4.15312171e-01, 1.27251232e+00,
          -1.13642168e+00, 2.87177712e-01, -1.32469356e+00,
          -1.08715735e-01, -7.55549446e-02, 1.66099954e+00,
          -4.26642627e-01, 1.26490045e+00, -1.13831401e+00,
          2.83182710e-01, -1.32412803e+00, -1.13631725e-01,
          -5.65737747e-02, 1.67414451e+00, -4.25965905e-01,
          1.26831496e+00, -1.15661800e+00, 2.41775692e-01,
          -1.34963310e+00, -1.73617363e-01, -5.31788282e-02,
          1.67852724e+00, -4.09529060e-01, 1.28523850e+00,
          2.44920659e+00, -3.71501654e-01, -4.14473623e-01,
          -4.15763766e-01, -4.15823579e-01, -4.15820509e-01,
          -4.15823579e-01 ]
      - [ 1.94237685e+00, 3.70648503e+00, -4.06760097e-01,
          1.94506850e-02, -2.44675562e-01, 4.49705809e-01,
          -4.49225634e-01, -4.25737351e-01, -4.37559277e-01,
          -4.31181669e-01, -4.49536741e-01, -4.47514564e-01,
          -4.49225634e-01, -4.48758960e-01, -4.49536741e-01,
          -2.72985905e-01, -4.49536741e-01, -4.16559845e-01,
          -4.49536741e-01, 1.43403494e+00, -4.49381173e-01,
          -4.24804062e-01, -4.49536741e-01, -1.19316828e+00,
          1.38695315e-01, -1.33618569e+00, -2.16616750e-01,
          -1.06125981e-01, 1.75880885e+00, -4.99403596e-01,
          1.24698007e+00, -1.14804089e+00, 2.13539422e-01,
          -1.31983089e+00, -1.88504606e-01, -1.13620304e-01,
          1.75456166e+00, -5.09544671e-01, 1.23303008e+00,
          -1.14168215e+00, 2.27950677e-01, -1.30610847e+00,
          -1.61546752e-01, -1.11759864e-01, 1.75285423e+00,
          -5.19214869e-01, 1.23027027e+00, -1.12152171e+00,
          2.74084181e-01, -1.29535031e+00, -1.31875873e-01,
          -1.37381986e-01, 1.73264313e+00, -5.14509916e-01,
          1.24611783e+00, -1.14245319e+00, 2.55477339e-01,
          -1.30008841e+00, -1.31532207e-01, -1.41953915e-01,
          1.73309433e+00, -5.08179903e-01, 1.25379014e+00,
          -1.12253833e+00, 2.73698837e-01, -1.29374206e+00,
          -1.23278558e-01, -1.29709184e-01, 1.74612927e+00,
          -5.01340270e-01, 1.25728118e+00, -1.13033247e+00,
          2.60047048e-01, -1.29964650e+00, -1.33876070e-01,
          -9.32294875e-02, 1.77592731e+00, -4.97273177e-01,
          1.25611258e+00, -1.14512479e+00, 2.22566366e-01,
          -1.31906879e+00, -1.82899788e-01, -1.04220182e-01,
          1.76647937e+00, -4.93767023e-01, 1.25610852e+00,
          2.44948459e+00, -4.03399110e-01, -4.08346474e-01,
          -4.09428746e-01, -4.09436822e-01, -4.09436673e-01,
          -4.09436822e-01 ]
      - [ 1.13376081e+00, 4.36413717e+00, -3.31041843e-01,
          3.38135242e-01, 1.25231296e-01, 4.36823845e-01,
          -3.69623333e-01, -3.50097328e-01, -1.00964442e-01,
          -3.71505350e-01, -3.80915463e-01, -3.77269059e-01,
          -3.22572738e-01, -3.79151076e-01, -3.80915463e-01,
          -3.79033446e-01, -3.79268706e-01, -3.80915463e-01,
          -3.80915463e-01, -3.71622980e-01, -3.80562603e-01,
          -3.80797863e-01, -3.80915463e-01, -1.20624352e+00,
          3.17564905e-01, -1.37655365e+00, -6.30040616e-02,
          -2.04531625e-01, 1.67147005e+00, -5.56482017e-01,
          1.26271975e+00, -1.16078985e+00, 3.87247145e-01,
          -1.35820746e+00, -3.42910923e-02, -2.17473537e-01,
          1.66430509e+00, -5.48247337e-01, 1.27374911e+00,
          -1.15146875e+00, 4.08531845e-01, -1.34615171e+00,
          -1.14925001e-02, -2.02619791e-01, 1.67380095e+00,
          -5.57591677e-01, 1.26316857e+00, -1.14852929e+00,
          4.10680234e-01, -1.33813953e+00, 1.68962702e-02,
          -2.23719671e-01, 1.65218222e+00, -5.72484314e-01,
          1.24265528e+00, -1.17795837e+00, 3.81478846e-01,
          -1.34364700e+00, 1.77295189e-02, -2.26202205e-01,
          1.65161145e+00, -5.82371116e-01, 1.22895944e+00,
          -1.12726605e+00, 4.60081667e-01, -1.32719684e+00,
          4.47726659e-02, -2.50752121e-01, 1.63339734e+00,
          -5.86119294e-01, 1.22539115e+00, -1.15053105e+00,
          4.04361516e-01, -1.33449757e+00, 2.47587934e-02,
          -2.25134403e-01, 1.65449476e+00, -5.82362592e-01,
          1.23184299e+00, -1.15720677e+00, 3.93148899e-01,
          -1.35625112e+00, -2.60898266e-02, -2.12960482e-01,
          1.66454720e+00, -5.67276239e-01, 1.25029683e+00,
          2.44948721e+00, -4.04791355e-01, -4.08656985e-01,
          -4.09004480e-01, -4.09011513e-01, -4.09011394e-01,
          -4.09011513e-01 ]
      - [ 1.67290998e+00, 4.23007679e+00, -1.25706881e-01,
          2.05945149e-02, 1.09450355e-01, 1.89148206e-02,
          -3.99161130e-01, -3.93618137e-01, -5.01206219e-02,
          -4.04872090e-01, -4.05711949e-01, -3.98153335e-01,
          -2.67976999e-01, -4.05543983e-01, -4.05711949e-01,
          -2.94852108e-01, -4.03864294e-01, -4.05543983e-01,
          -4.05711949e-01, -7.27965012e-02, -4.02184606e-01,
          -4.04704124e-01, -4.05711949e-01, -1.16112399e+00,
          3.37977916e-01, -1.30906796e+00, -4.73461635e-02,
          -2.99346477e-01, 1.68526804e+00, -5.91590464e-01,
          1.29721820e+00, -1.12090158e+00, 4.07579750e-01,
          -1.28436971e+00, 6.05880376e-03, -3.00426751e-01,
          1.68451715e+00, -5.91191649e-01, 1.29756212e+00,
          -1.11177325e+00, 4.25498694e-01, -1.26969254e+00,
          3.92066836e-02, -3.05115491e-01, 1.67883658e+00,
          -5.96951067e-01, 1.28787816e+00, -1.11477149e+00,
          4.18671072e-01, -1.26923144e+00, 5.39838225e-02,
          -3.31839561e-01, 1.65247691e+00, -5.95935404e-01,
          1.28249907e+00, -1.14928067e+00, 3.67195487e-01,
          -1.28804231e+00, 1.86553895e-02, -3.13150644e-01,
          1.66598690e+00, -5.89963317e-01, 1.28329718e+00,
          -1.14045441e+00, 3.58771265e-01, -1.29144037e+00,
          -6.97798328e-03, -3.12819332e-01, 1.66955101e+00,
          -5.92176259e-01, 1.28241956e+00, -1.14141357e+00,
          3.50038439e-01, -1.29604912e+00, -3.47004049e-02,
          -3.06381553e-01, 1.67308998e+00, -5.99429309e-01,
          1.27876210e+00, -1.15044963e+00, 3.31426084e-01,
          -1.30571210e+00, -5.94254397e-02, -3.15109462e-01,
          1.66977572e+00, -5.97048223e-01, 1.28649724e+00,
          2.44724274e+00, -3.04446042e-01, -4.28461164e-01,
          -4.28573340e-01, -4.28587049e-01, -4.28588152e-01,
          -4.28587049e-01 ]
      - [ 7.96820164e-01, 4.56510496e+00, -2.81544358e-01,
          -2.32375041e-01, -2.68612772e-01, 1.19992986e-01,
          -2.81763554e-01, -2.81763554e-01, -2.81763554e-01,
          -2.81325191e-01, -2.81763554e-01, -2.81763554e-01,
          -2.81763554e-01, -2.81252116e-01, -2.81763554e-01,
          -2.80813754e-01, -2.81763554e-01, -2.79060334e-01,
          -2.81763554e-01, -2.76064873e-01, -2.81763554e-01,
          -2.01470688e-01, -2.81763554e-01, -1.12216091e+00,
          4.36588049e-01, -1.30274522e+00, 1.99900325e-02,
          -2.83368558e-01, 1.70432699e+00, -6.66490376e-01,
          1.16704309e+00, -1.09487450e+00, 4.68448132e-01,
          -1.29288852e+00, 3.09825968e-02, -2.83638090e-01,
          1.70756626e+00, -6.66412652e-01, 1.16499674e+00,
          -1.11678851e+00, 4.20637846e-01, -1.30073655e+00,
          4.63105226e-03, -2.37711772e-01, 1.74652970e+00,
          -6.64180219e-01, 1.17157888e+00, -1.10503566e+00,
          4.42674696e-01, -1.30739522e+00, -1.26543315e-02,
          -2.46130511e-01, 1.74176407e+00, -6.53375685e-01,
          1.18463671e+00, -1.12379849e+00, 4.33622241e-01,
          -1.31158376e+00, -1.12317987e-02, -2.51071393e-01,
          1.73666167e+00, -6.47041023e-01, 1.18786490e+00,
          -1.10707688e+00, 4.30714279e-01, -1.31403947e+00,
          -3.17228213e-02, -2.50644207e-01, 1.74143934e+00,
          -6.51443362e-01, 1.18840766e+00, -1.12555063e+00,
          3.93531829e-01, -1.30935156e+00, -2.46390533e-02,
          -2.49527916e-01, 1.73642814e+00, -6.63008511e-01,
          1.17428195e+00, -1.10233867e+00, 4.47137892e-01,
          -1.29895210e+00, 1.89315733e-02, -2.76379287e-01,
          1.70792079e+00, -6.68781579e-01, 1.16543293e+00,
          2.44948888e+00, -4.06247258e-01, -4.08438623e-01,
          -4.08696622e-01, -4.08702105e-01, -4.08702165e-01,
          -4.08702105e-01 ]
      - [ 6.83291912e-01, 4.59421349e+00, -2.65897214e-01,
          -2.39224270e-01, -2.35890165e-01, 4.78548519e-02,
          -2.73830146e-01, -2.74117559e-01, -2.73427725e-01,
          -2.74060071e-01, -2.74117559e-01, -2.74117559e-01,
          -2.73715168e-01, -2.74117559e-01, -2.74117559e-01,
          -2.73945093e-01, -2.74060071e-01, -2.70668477e-01,
          -2.74117559e-01, -2.70898402e-01, -2.74002582e-01,
          -2.06917822e-01, -2.74117559e-01, -1.18833172e+00,
          3.06711495e-01, -1.38231921e+00, -1.10073060e-01,
          -1.54898778e-01, 1.71004128e+00, -5.89952052e-01,
          1.18487465e+00, -1.15321040e+00, 3.48747194e-01,
          -1.37200034e+00, -9.73571092e-02, -1.47669628e-01,
          1.71817243e+00, -5.87007105e-01, 1.18353164e+00,
          -1.14415407e+00, 3.68836492e-01, -1.35965562e+00,
          -7.01009929e-02, -1.15615636e-01, 1.74033976e+00,
          -5.85548937e-01, 1.18808544e+00, -1.12692380e+00,
          4.10687387e-01, -1.35374594e+00, -5.38251400e-02,
          -1.41838506e-01, 1.72459972e+00, -5.81572175e-01,
          1.19727707e+00, -1.15021205e+00, 3.86886239e-01,
          -1.34653842e+00, -2.25413181e-02, -1.57596618e-01,
          1.70902944e+00, -5.88025510e-01, 1.19005382e+00,
          -1.10671484e+00, 4.54471171e-01, -1.33305728e+00,
          -7.86530413e-03, -1.72986239e-01, 1.69568026e+00,
          -5.95098495e-01, 1.18537939e+00, -1.11609387e+00,
          4.25214589e-01, -1.33251894e+00, -1.57659501e-02,
          -1.57350034e-01, 1.70066381e+00, -5.98666430e-01,
          1.18225467e+00, -1.12513208e+00, 4.10602391e-01,
          -1.35298419e+00, -5.32815494e-02, -1.59577191e-01,
          1.70156860e+00, -5.94187558e-01, 1.17828488e+00,
          2.44929266e+00, -3.77729714e-01, -4.11263943e-01,
          -4.14958626e-01, -4.15111035e-01, -4.15118217e-01,
          -4.15111035e-01 ]
      - [ 1.21298194e+00, 4.20565462e+00, -3.52314591e-01,
          4.92762923e-01, -3.50699455e-01, 1.02028680e+00,
          -3.80263835e-01, -3.76752615e-01, -3.80404264e-01,
          -3.80404264e-01, -3.80404264e-01, -3.77454847e-01,
          -3.80404264e-01, -3.80334049e-01, -3.80404264e-01,
          -3.27525467e-01, -3.80404264e-01, -3.79982919e-01,
          -3.80404264e-01, -2.11515173e-01, -3.80404264e-01,
          -3.71204913e-01, -3.80404264e-01, -1.27581596e+00,
          1.31976500e-01, -1.52097571e+00, -2.93029070e-01,
          3.28399688e-01, 1.62961817e+00, -2.88510621e-01,
          1.12432349e+00, -1.21451974e+00, 1.88524604e-01,
          -1.50186169e+00, -2.79627621e-01, 3.28950316e-01,
          1.63123345e+00, -2.90087700e-01, 1.12477517e+00,
          -1.22301745e+00, 1.74587503e-01, -1.49727845e+00,
          -2.74278879e-01, 3.69251728e-01, 1.64217448e+00,
          -2.98302114e-01, 1.12254560e+00, -1.22318208e+00,
          1.82484403e-01, -1.49981117e+00, -2.70636588e-01,
          3.39662373e-01, 1.63868392e+00, -2.91369259e-01,
          1.12732112e+00, -1.24768066e+00, 1.79767311e-01,
          -1.50123215e+00, -2.51349121e-01, 3.41050982e-01,
          1.63606012e+00, -2.91609079e-01, 1.12372828e+00,
          -1.18538487e+00, 2.41556317e-01, -1.47798777e+00,
          -2.23579973e-01, 3.35447311e-01, 1.63515484e+00,
          -2.95550674e-01, 1.11493969e+00, -1.22655332e+00,
          1.78984523e-01, -1.48596001e+00, -2.42547140e-01,
          3.77359957e-01, 1.65337789e+00, -2.99823612e-01,
          1.11396623e+00, -1.23068690e+00, 1.74149781e-01,
          -1.50211871e+00, -2.72400260e-01, 3.29052448e-01,
          1.62939298e+00, -2.91094393e-01, 1.11936176e+00,
          2.41633010e+00, -1.76086593e-02, -3.92285377e-01,
          -4.79194224e-01, -5.11390626e-01, -5.04284263e-01,
          -5.11566937e-01 ]
      - [ 1.42278373e+00, 4.23556232e+00, -3.28947604e-01,
          3.21258843e-01, -3.57060224e-01, 7.38748789e-01,
          -3.62076163e-01, -3.60209763e-01, -3.61959517e-01,
          -3.62542778e-01, -3.62542778e-01, -3.61376256e-01,
          -3.61259609e-01, -3.62542778e-01, -3.62542778e-01,
          -3.45861822e-01, -3.62542778e-01, -3.62426102e-01,
          -3.62542778e-01, -2.56624669e-01, -3.62076163e-01,
          -3.60676378e-01, -3.62542778e-01, -1.16247535e+00,
          3.56796384e-01, -1.35676861e+00, -5.53866401e-02,
          -1.17777780e-01, 1.71888173e+00, -5.56778014e-01,
          1.19209313e+00, -1.11899388e+00, 4.15111929e-01,
          -1.33578169e+00, -2.46182382e-02, -1.22770719e-01,
          1.71655953e+00, -5.59299171e-01, 1.19589150e+00,
          -1.14120674e+00, 3.69033366e-01, -1.34179068e+00,
          -4.61073257e-02, -1.18437313e-01, 1.71696293e+00,
          -5.74634433e-01, 1.18622124e+00, -1.14000762e+00,
          3.71508777e-01, -1.36060870e+00, -8.86294693e-02,
          -1.42586902e-01, 1.70184994e+00, -5.74725688e-01,
          1.18468082e+00, -1.19829428e+00, 2.76312381e-01,
          -1.37821257e+00, -1.06866792e-01, -1.16874121e-01,
          1.71580255e+00, -5.61380923e-01, 1.18534029e+00,
          -1.17129469e+00, 2.95352399e-01, -1.37816918e+00,
          -1.18398115e-01, -9.53706428e-02, 1.73413324e+00,
          -5.58193445e-01, 1.18303037e+00, -1.15525091e+00,
          3.38236511e-01, -1.36310422e+00, -8.58063325e-02,
          -6.85549676e-02, 1.74810946e+00, -5.65894604e-01,
          1.17068887e+00, -1.13631701e+00, 3.81683141e-01,
          -1.34448969e+00, -3.52566503e-02, -1.14150204e-01,
          1.71693230e+00, -5.59106231e-01, 1.17915821e+00,
          2.44948983e+00, -4.08248305e-01, -4.08248305e-01,
          -4.08248305e-01, -4.08248305e-01, -4.08248305e-01,
          -4.08248305e-01 ]
      - [ 1.49590588e+00, 3.80903292e+00, -3.54858637e-01,
          6.94421947e-01, -1.98506504e-01, 1.62966585e+00,
          -4.25025851e-01, -4.20483500e-01, -3.75060081e-01,
          -4.25025851e-01, -4.25025851e-01, -4.23950016e-01,
          -4.20842111e-01, -4.25025851e-01, -4.25025851e-01,
          -4.04585302e-01, -4.24906313e-01, -4.23232824e-01,
          -4.25025851e-01, -3.66214484e-01, -4.24906313e-01,
          -4.16299760e-01, -4.25025851e-01, -1.20556664e+00,
          2.38857061e-01, -1.39329946e+00, -1.60537019e-01,
          -3.01101189e-02, 1.75197470e+00, -5.22314310e-01,
          1.18805778e+00, -1.18513966e+00, 2.57165790e-01,
          -1.39245439e+00, -1.76870212e-01, -4.14167158e-02,
          1.74827707e+00, -5.07251978e-01, 1.20509481e+00,
          -1.17712820e+00, 2.75905043e-01, -1.38059843e+00,
          -1.58350557e-01, -2.65124105e-02, 1.75819480e+00,
          -5.07528484e-01, 1.20469129e+00, -1.15619743e+00,
          3.14769298e-01, -1.36729491e+00, -1.17882095e-01,
          -5.79366460e-02, 1.73579574e+00, -5.15668571e-01,
          1.19812262e+00, -1.18500793e+00, 2.88235039e-01,
          -1.36516857e+00, -8.78573507e-02, -8.01742971e-02,
          1.70986283e+00, -5.34345806e-01, 1.17862380e+00,
          -1.13079464e+00, 3.74218643e-01, -1.33938920e+00,
          -4.48540077e-02, -9.92734656e-02, 1.69888532e+00,
          -5.53562999e-01, 1.15934861e+00, -1.12340105e+00,
          3.84912044e-01, -1.32822263e+00, -1.77955050e-02,
          -9.33000594e-02, 1.70163941e+00, -5.49955130e-01,
          1.15812147e+00, -1.13983929e+00, 3.58767897e-01,
          -1.35200393e+00, -6.68639541e-02, -6.98754266e-02,
          1.71989858e+00, -5.37627339e-01, 1.16995108e+00,
          2.44937944e+00, -3.86374712e-01, -4.05813277e-01,
          -4.13904309e-01, -4.14427698e-01, -4.14431721e-01,
          -4.14427638e-01 ]
      - [ 1.05031407e+00, 3.91130567e+00, -3.86039495e-01,
          9.56144631e-01, -3.79073352e-01, 1.63344288e+00,
          -4.18653667e-01, -3.44559342e-01, -4.06431258e-01,
          -4.11497563e-01, -4.18843657e-01, -3.57225031e-01,
          -3.37973177e-01, -4.18716997e-01, -4.18843657e-01,
          -4.01618302e-01, -4.16880459e-01, -4.17830408e-01,
          -4.18843657e-01, -3.50068897e-01, -4.17133778e-01,
          -4.12130833e-01, -4.18843657e-01, -1.24390101e+00,
          1.74930140e-01, -1.45381296e+00, -2.29659915e-01,
          1.27395883e-01, 1.70985973e+00, -4.31626707e-01,
          1.15127349e+00, -1.17419517e+00, 2.72410899e-01,
          -1.42661524e+00, -1.88579619e-01, 1.16357759e-01,
          1.70520556e+00, -4.38868374e-01, 1.14936066e+00,
          -1.17935610e+00, 2.64563054e-01, -1.40684676e+00,
          -1.47426054e-01, 1.28632709e-01, 1.70698690e+00,
          -4.44590688e-01, 1.15119743e+00, -1.16226935e+00,
          3.04664344e-01, -1.40419734e+00, -1.33707762e-01,
          9.11254883e-02, 1.69256449e+00, -4.41006124e-01,
          1.15228391e+00, -1.20329857e+00, 2.58192629e-01,
          -1.41664815e+00, -1.44073382e-01, 1.11237332e-01,
          1.70529449e+00, -4.41198260e-01, 1.14577842e+00,
          -1.17190659e+00, 2.81302363e-01, -1.41479826e+00,
          -1.54798850e-01, 1.18799940e-01, 1.71002185e+00,
          -4.39852893e-01, 1.14393127e+00, -1.19411635e+00,
          2.41753384e-01, -1.43028164e+00, -1.95127472e-01,
          1.55197084e-01, 1.73301554e+00, -4.38587248e-01,
          1.14850080e+00, -1.20758796e+00, 2.13904381e-01,
          -1.44478810e+00, -2.23134652e-01, 1.23844571e-01,
          1.71119845e+00, -4.30036366e-01, 1.15610909e+00,
          2.44938135e+00, -4.03416276e-01, -3.87441993e-01,
          -4.14456487e-01, -4.14690912e-01, -4.14684772e-01,
          -4.14690942e-01 ]
      - [ 3.25064719e-01, 3.24741006e+00, -4.21070665e-01,
          1.75060976e+00, -3.24517161e-01, 2.46294045e+00,
          -4.22506809e-01, -4.24384862e-01, -4.24384862e-01,
          -4.24274385e-01, -4.24384862e-01, -4.24384862e-01,
          -4.24384862e-01, -4.24384862e-01, -4.24384862e-01,
          -4.04168278e-01, -4.24384862e-01, -4.24163908e-01,
          -4.24384862e-01, -2.79775560e-01, -4.24274385e-01,
          -4.17425066e-01, -4.24384862e-01, -1.25583863e+00,
          1.22867562e-01, -1.51161921e+00, -3.47406685e-01,
          3.88303488e-01, 1.69197679e+00, -3.12928557e-01,
          1.09587276e+00, -1.18854225e+00, 1.98838994e-01,
          -1.47676158e+00, -2.92731106e-01, 3.54115814e-01,
          1.67100954e+00, -3.14264327e-01, 1.09296250e+00,
          -1.18336427e+00, 2.05647841e-01, -1.46282387e+00,
          -2.72588104e-01, 3.67275715e-01, 1.67116153e+00,
          -3.26325297e-01, 1.08604300e+00, -1.19389248e+00,
          1.89379245e-01, -1.47198284e+00, -2.81243742e-01,
          3.38228911e-01, 1.66405976e+00, -3.35060328e-01,
          1.08030820e+00, -1.25190961e+00, 1.13256924e-01,
          -1.48526442e+00, -2.92471647e-01, 3.37796628e-01,
          1.66499209e+00, -3.36193830e-01, 1.08105779e+00,
          -1.17881632e+00, 2.20437124e-01, -1.46850824e+00,
          -2.71755785e-01, 3.40807855e-01, 1.66662359e+00,
          -3.20538282e-01, 1.09328055e+00, -1.18881619e+00,
          1.94494620e-01, -1.46853566e+00, -2.80491054e-01,
          3.89807940e-01, 1.69198239e+00, -3.06900322e-01,
          1.09989285e+00, -1.21872997e+00, 1.46539554e-01,
          -1.49188673e+00, -3.23227197e-01, 3.69073838e-01,
          1.68253160e+00, -3.03082615e-01, 1.10387433e+00,
          2.44948983e+00, -4.08248305e-01, -4.08248305e-01,
          -4.08248305e-01, -4.08248305e-01, -4.08248305e-01,
          -4.08248305e-01 ]
      - [ 8.88277411e-01, 4.12595558e+00, -3.89239728e-01,
          1.27846467e+00, -3.14838767e-01, 9.00844693e-01,
          -3.90242428e-01, -3.88170153e-01, -3.90242428e-01,
          -3.90242428e-01, -3.90242428e-01, -3.89039189e-01,
          -3.90242428e-01, -3.90175581e-01, -3.90242428e-01,
          -3.72193664e-01, -3.90242428e-01, -3.90108734e-01,
          -3.90242428e-01, -2.69917428e-01, -3.90242428e-01,
          -3.87434840e-01, -3.90242428e-01, -1.22884881e+00,
          1.45707419e-02, -1.43202388e+00, -3.86316836e-01,
          3.82367283e-01, 1.72234619e+00, -3.01969379e-01,
          1.10163152e+00, -1.13578963e+00, 1.58695742e-01,
          -1.38737214e+00, -3.04689974e-01, 3.34871382e-01,
          1.70092452e+00, -2.96691298e-01, 1.11543369e+00,
          -1.13798225e+00, 1.54234290e-01, -1.37667215e+00,
          -2.86254913e-01, 3.37996930e-01, 1.70558286e+00,
          -2.99027681e-01, 1.11314702e+00, -1.16096556e+00,
          1.12255573e-01, -1.39498425e+00, -3.18708122e-01,
          3.55592459e-01, 1.71514118e+00, -2.94942170e-01,
          1.10584497e+00, -1.24711156e+00, -1.70699526e-02,
          -1.43891573e+00, -3.88847351e-01, 4.01643962e-01,
          1.73007298e+00, -2.86729187e-01, 1.09566760e+00,
          -1.22579885e+00, -6.60000136e-03, -1.44340920e+00,
          -4.07008916e-01, 4.34772402e-01, 1.74398100e+00,
          -2.79321134e-01, 1.09116805e+00, -1.21084845e+00,
          2.50772964e-02, -1.43792880e+00, -4.01825458e-01,
          4.42441285e-01, 1.75025713e+00, -2.87982345e-01,
          1.08495927e+00, -1.20521367e+00, 2.77390722e-02,
          -1.43607414e+00, -4.05317187e-01, 3.92573804e-01,
          1.72638929e+00, -2.96833307e-01, 1.08869469e+00,
          2.26513886e+00, 5.41434050e-01, -5.39212823e-01,
          -5.63595355e-01, -5.67546487e-01, -5.68680584e-01,
          -5.67537487e-01 ]
      - [ 4.10243958e-01, 3.68638968e+00, -4.04784590e-01,
          3.31678569e-01, 3.69318247e-01, 2.46300054e+00,
          -4.00602400e-01, -4.05282468e-01, -4.05979514e-01,
          -4.05879915e-01, -4.05979514e-01, -4.05979514e-01,
          -4.05979514e-01, -4.05979514e-01, -4.05979514e-01,
          -3.97814274e-01, -4.05879915e-01, -4.04585451e-01,
          -4.05979514e-01, -3.78396988e-01, -4.05780345e-01,
          -4.03788835e-01, -4.05979514e-01, -1.23500288e+00,
          1.46552518e-01, -1.40393507e+00, -2.44457498e-01,
          -4.99223219e-03, 1.78811038e+00, -4.83808398e-01,
          1.23104739e+00, -1.17031932e+00, 2.54163414e-01,
          -1.37702739e+00, -1.88339949e-01, -1.08189341e-02,
          1.78497291e+00, -4.89972353e-01, 1.22133422e+00,
          -1.16992664e+00, 2.54353851e-01, -1.34531283e+00,
          -1.10825323e-01, -5.93683906e-02, 1.74451375e+00,
          -5.16523957e-01, 1.19516587e+00, -1.14745557e+00,
          3.15370798e-01, -1.32121325e+00, -4.85013016e-02,
          -1.21350370e-01, 1.69735849e+00, -5.26492655e-01,
          1.19102979e+00, -1.14910042e+00, 3.40019017e-01,
          -1.31379318e+00, -1.55828893e-02, -1.41331732e-01,
          1.68000317e+00, -5.30558348e-01, 1.18781519e+00,
          -1.12651038e+00, 3.54351193e-01, -1.30705416e+00,
          -2.07668990e-02, -1.50292858e-01, 1.68074143e+00,
          -5.31985283e-01, 1.19122803e+00, -1.13938892e+00,
          3.25135976e-01, -1.33097422e+00, -8.76677781e-02,
          -9.15082246e-02, 1.72516239e+00, -5.28133452e-01,
          1.19282103e+00, -1.18207860e+00, 2.30718315e-01,
          -1.37141347e+00, -1.83545664e-01, -3.89024019e-02,
          1.76537478e+00, -5.00077069e-01, 1.21896684e+00,
          2.44702625e+00, -2.99546093e-01, -4.28935885e-01,
          -4.29617256e-01, -4.29641724e-01, -4.29643571e-01,
          -4.29641724e-01 ]
      - [ 3.05469960e-01, 3.69929075e+00, -4.08424616e-01,
          7.52473533e-01, 2.49104545e-01, 2.36145663e+00,
          -4.11127985e-01, -4.12209332e-01, -4.12479669e-01,
          -4.11871403e-01, -4.12479669e-01, -4.12209332e-01,
          -4.12479669e-01, -4.12344515e-01, -4.12479669e-01,
          -4.06329483e-01, -4.12479669e-01, -4.11601067e-01,
          -4.12479669e-01, -3.73888940e-01, -4.12479669e-01,
          -4.07951504e-01, -4.12479669e-01, -1.21085930e+00,
          1.98148996e-01, -1.40275955e+00, -2.05441698e-01,
          6.13260679e-02, 1.74224699e+00, -4.50730771e-01,
          1.18377423e+00, -1.17876327e+00, 2.29918152e-01,
          -1.39543903e+00, -1.97033167e-01, 8.04819763e-02,
          1.75419128e+00, -4.49707359e-01, 1.17419374e+00,
          -1.17680049e+00, 2.31051356e-01, -1.39212799e+00,
          -1.99614674e-01, 1.11485347e-01, 1.77121925e+00,
          -4.57531869e-01, 1.15763330e+00, -1.17430103e+00,
          2.29761779e-01, -1.38642192e+00, -1.86063826e-01,
          6.79167882e-02, 1.73978901e+00, -4.64251667e-01,
          1.15645254e+00, -1.21225762e+00, 1.91030324e-01,
          -1.39906180e+00, -2.02964142e-01, 3.38716619e-02,
          1.71700549e+00, -4.73313749e-01, 1.15542006e+00,
          -1.15843856e+00, 2.65020490e-01, -1.37799156e+00,
          -1.72239393e-01, 2.25870479e-02, 1.71108329e+00,
          -4.76335078e-01, 1.16189599e+00, -1.13252997e+00,
          3.17350835e-01, -1.36463034e+00, -1.48887232e-01,
          5.48915789e-02, 1.73763537e+00, -4.70537782e-01,
          1.16677940e+00, -1.14906871e+00, 2.83148557e-01,
          -1.37565279e+00, -1.64043814e-01, 4.06555049e-02,
          1.73156250e+00, -4.56752807e-01, 1.18302393e+00,
          2.34459400e+00, 3.08127373e-01, -5.10328829e-01,
          -5.30160546e-01, -5.37736952e-01, -5.36759198e-01,
          -5.37735701e-01 ]
      - [ 3.33186895e-01, 3.68353033e+00, -4.02225047e-01,
          7.05187023e-01, 1.24184564e-01, 2.42308998e+00,
          -4.06248927e-01, -4.04026777e-01, -4.06128824e-01,
          -4.05768454e-01, -4.06429112e-01, -4.06369060e-01,
          -4.06369060e-01, -4.06429112e-01, -4.06429112e-01,
          -4.02465254e-01, -4.06429112e-01, -4.05708402e-01,
          -4.06429112e-01, -3.75138819e-01, -4.06429112e-01,
          -4.03726488e-01, -4.06429112e-01, -1.20156336e+00,
          1.91159606e-01, -1.42013299e+00, -2.33231455e-01,
          2.07977369e-01, 1.73981285e+00, -3.99981230e-01,
          1.13186622e+00, -1.16949654e+00, 2.21444726e-01,
          -1.40761197e+00, -2.13986665e-01, 2.04966977e-01,
          1.73534632e+00, -3.99737775e-01, 1.12375319e+00,
          -1.18732190e+00, 1.89959317e-01, -1.41317248e+00,
          -2.26985261e-01, 2.52147406e-01, 1.76033890e+00,
          -4.08803344e-01, 1.10614991e+00, -1.19703138e+00,
          1.72544196e-01, -1.43029320e+00, -2.58205444e-01,
          2.27088511e-01, 1.73788011e+00, -4.08474118e-01,
          1.10049617e+00, -1.23606467e+00, 1.17197186e-01,
          -1.43895411e+00, -2.68233001e-01, 2.17675135e-01,
          1.73105574e+00, -4.07964081e-01, 1.10316896e+00,
          -1.18421149e+00, 1.87069952e-01, -1.42430818e+00,
          -2.56725937e-01, 1.96097031e-01, 1.72170162e+00,
          -4.10101324e-01, 1.11347330e+00, -1.17946982e+00,
          1.93495229e-01, -1.41231263e+00, -2.43705213e-01,
          2.22616717e-01, 1.74068236e+00, -4.10931557e-01,
          1.12166262e+00, -1.16197610e+00, 2.26642206e-01,
          -1.40711105e+00, -2.28743389e-01, 1.89873263e-01,
          1.72728646e+00, -4.00617152e-01, 1.13482916e+00,
          2.44227362e+00, -2.21796662e-01, -4.42883164e-01,
          -4.44100380e-01, -4.44501549e-01, -4.44490373e-01,
          -4.44501519e-01 ]
      - [ -6.09528013e-02, 4.13223362e+00, -3.46136749e-01,
          3.58365864e-01, -1.42866552e-01, 1.90756249e+00,
          -3.45398128e-01, -3.46801519e-01, -3.47835600e-01,
          -3.47761750e-01, -3.47835600e-01, -3.47466290e-01,
          -3.47835600e-01, -3.47614020e-01, -3.47835600e-01,
          -3.32767606e-01, -3.47835600e-01, -3.45545858e-01,
          -3.47835600e-01, -3.07432681e-01, -3.47835600e-01,
          -3.44733357e-01, -3.47835600e-01, -1.19153810e+00,
          1.62819773e-01, -1.33776867e+00, -2.22711593e-01,
          -1.16844490e-01, 1.81001234e+00, -5.55545628e-01,
          1.21381021e+00, -1.15285087e+00, 2.30958760e-01,
          -1.32778966e+00, -2.00779095e-01, -1.06654882e-01,
          1.81986797e+00, -5.47444224e-01, 1.21578729e+00,
          -1.13026345e+00, 2.90768921e-01, -1.30963373e+00,
          -1.54582307e-01, -9.81226638e-02, 1.82928145e+00,
          -5.63218296e-01, 1.19437253e+00, -1.11870801e+00,
          3.17388773e-01, -1.28608072e+00, -8.60458761e-02,
          -1.64478704e-01, 1.76300502e+00, -5.78128278e-01,
          1.18098867e+00, -1.12810743e+00, 3.31880987e-01,
          -1.27831948e+00, -4.47353870e-02, -1.92765310e-01,
          1.73490238e+00, -5.88251173e-01, 1.17504358e+00,
          -1.09489810e+00, 3.82791966e-01, -1.26528358e+00,
          -2.17064992e-02, -2.03975379e-01, 1.72419274e+00,
          -5.91409504e-01, 1.17483068e+00, -1.10009944e+00,
          3.63518417e-01, -1.27061594e+00, -4.48398478e-02,
          -1.77290693e-01, 1.75085425e+00, -5.89211166e-01,
          1.17896652e+00, -1.12028098e+00, 3.11857611e-01,
